3.916005414191058298e-01
1.461867408420886916e+00
3.232786532200533358e-01
6.836710112392379024e-01
9.565905355604189531e-01
-4.679305533784794413e-02
2.977160552946860772e+00
-4.033020966468758850e-01
1.465585256800936875e+00
-5.568241422996558776e-02
3.132635278584254834e+00
5.618083378646426818e-01
1.840016544895991812e-01
-3.203058357866125361e-01
3.144146204963947921e-01
1.268645990098728193e-01
-8.785970353367484886e-01
-1.648493313437076946e+00
6.563504188330255840e-01
4.460432954377354653e-01
1.167649026414220081e+00
3.462895767804931579e-01
-5.231034684555174730e-01
-1.381923990985338691e+00
9.515334630097244117e-01
2.323567248128985518e+00
8.079774376084704057e-01
-1.168345223669370769e+00
7.423509085566065702e-02
-8.399850476375529951e-01
-3.758937537986674071e-01
-1.345696628725071564e-01
2.251310931088273959e-01
2.728129495536273375e+00
-6.519965520219889177e-01
2.048378912055358381e+00
1.674879284986681427e-01
-4.420122204732210291e-01
-7.874506601817448104e-01
-2.202676558840141130e+00
-4.323447533151681954e-01
-6.762202752863372135e-01
1.042116870618229774e+00
1.586854809873700090e-01
-2.397702305891395991e+00
3.600013299025622837e-01
-3.091378100261991668e-01
-1.396883321453948001e+00
6.909513734745478253e-01
5.849742669390428640e-01
-1.589862390648997481e+00
1.788841086920939238e-01
-3.556630416266574057e-01
-4.405107725115001149e-01
-1.177675155963980425e+00
1.353488961195002283e+00
2.242878135339313239e+00
-1.757629476809515756e-01
8.698958986994259623e-01
2.129933883265267447e+00
-9.091031620762968224e-03
1.044974817877397877e+00
-1.180466532343572850e-01
2.367506357689763252e+00
-7.785751136116877968e-02
-7.530602121374226909e-01
3.790678442175655916e-02
2.358714412712650810e-01
2.782302392132091073e-04
-1.380050095830337442e+00
-4.978393576813192056e-02
-4.257751049605295601e-01
-7.858045687199761709e-01
-2.472828943642897848e+00
-6.788466028189052426e-02
-5.661969801196611307e-01
3.407232852484492480e-01
-2.012290085955550922e-01
-6.426953337271645861e-01
-1.990528977555576229e-01
-9.139644646760322066e-01
9.577636548340906497e-01
1.504829376562858645e+00
3.116884023976902451e+00
-1.077790422424624722e-01
1.701039419906868577e+00
1.039555332845214286e+00
7.640403924500440702e-01
2.412064820943247145e-01
-1.638793224873239085e+00
8.165647331284244803e-01
-1.140991064739514727e+00
-3.657496289300590786e-01
1.050018899292210345e-01
-2.350601340435017061e-01
4.201975203552875682e-01
6.047454641149133669e-01
-5.394360875669287347e-01
1.099837780056294623e+00
-1.417002721681487776e+00
1.218205330901089845e+00
1.761200183316119217e-01
5.046406114253729758e-01
6.593432720903891209e-01
3.251681022338673288e-01
3.870240539423444592e-01
3.016433931946894687e-01
-5.904002811981869936e-01
1.848888810794618864e-01
4.366462226410088715e-02
-2.974150418877647972e-01
-8.468465454493233624e-01
-3.220490049879143335e-01
-5.713233930848351516e-01
7.873844121728071910e-01
4.208387974191621916e-01
2.951064840613609075e+00
-1.757119092320751363e+00
-5.940107112936777733e-01
-1.379769425007316030e+00
6.158958103853631183e-01
-8.685761475387363539e-01
8.635076966591513914e-01
9.979764641516253310e-01
9.737143098867290236e-01
3.811055382297373617e-02
-5.366068343493998194e-01
1.680694632358660900e+00
-3.600222162905337697e-01
9.868243018950915157e-01
-1.275317055123631027e+00
4.086858940523564049e-02
4.580739120770839223e-01
5.283358799326101085e-01
-2.336910819209718770e-01
4.535421572657870048e-01
3.830870082560047796e-01
9.050515359041862995e-01
-1.374461985217479310e+00
1.574440678517858572e-01
1.099834943818177369e+00
6.033193831803075335e-01
1.029756190661221593e+00
4.252074430423998797e-01
-6.706878840980207146e-02
1.821046893066815775e+00
2.821063885534260685e-01
-1.073731117468304630e+00
1.154812945782084377e-01
-2.365608566464809659e-01
2.591837753213658280e-01
1.216891692268013969e-01
1.169485881388262760e-01
-1.231510343529252038e+00
6.425772884299829624e-01
-1.316063273038777348e+00
-8.582866649539564463e-01
1.135938888926288692e+00
3.012438090368191879e-01
1.199004556364492657e+00
-1.958920830700985882e-02
-1.757569506954453020e+00
2.861642888866202106e-01
2.995198631713920090e-01
2.091017087522120121e-01
8.948077280719309856e-01
-5.010045682697934488e-01
-1.219833339461273036e+00
-1.567709256949381347e+00
6.877251125430958734e-01
-4.387353058719528076e-01
1.556881311453433669e+00
-1.927262402203207214e+00
6.731554502153015707e-02
-2.021062696519698054e+00
3.964569490406926744e-01
8.928234239395727023e-01
2.113938544454668111e+00
-3.773334722375007444e-01
-5.161697277108102666e-01
1.395661123228654210e-01
-1.453206122046252879e+00
-2.314267929621255937e-01
-1.515195139780071365e+00
6.239763591892334427e-01
-2.664578435835908143e-01
-5.248291308021638679e-01
1.875769057417832286e+00
1.037474585203499888e+00
9.072515734474758675e-01
-7.731761622134634970e-02
1.058497698935319947e-01
1.519061499682851757e+00
-1.218869308412865671e+00
6.095054033778706248e-01
-1.915913233375343028e+00
8.980451072267086055e-01
1.155715610819423034e-01
-4.520985203963312493e-01
-1.641648785907055874e+00
-6.660751033632532625e-01
3.590405828473298699e-01
1.820373607826442641e-01
-6.953932352622591018e-02
-3.267751969721559568e-01
-8.824243774689479736e-01
6.022411786861056049e-01
7.950516809498564541e-01
1.460301305619238654e+00
7.800770141762387588e-01
4.500781742421561260e-01
4.985574007421893494e-01
1.258007917952956189e+00
-1.418381086454294948e+00
4.673160497212225373e-01
8.003470924605692316e-01
-1.963120079169728971e-01
7.192311880962048987e-01
-2.880027050267348621e-01
-3.462831837422764014e-01
-6.988598327501319707e-01
-4.601327326872214352e-01
5.608014627876752867e-01
6.620763096395732017e-02
-2.530359070046701575e-01
1.713593449714260197e-01
7.083916268927495929e-01
-3.624794835519183911e-01
3.046884546510666980e-01
-2.103006883010768990e-01
-1.142094418854670002e+00
-2.586334829309813732e-01
-3.227216747227666938e-01
8.827212895754432687e-01
-5.247387330444525100e-02
4.326233185150192284e-01
-5.571237112147060522e-01
-1.279212604780852969e+00
3.346605448535010935e-02
1.636083321389391276e+00
6.379926591971252225e-01
-7.061345022055840470e-01
-6.420480715414218498e-01
1.137459286679930015e+00
4.435825274843283594e-01
1.874415649748144785e+00
6.414672328964725334e-02
1.114134136750651871e+00
-2.213869361120076595e-01
-1.129696355854116485e-02
3.568428488546096511e-01
-1.339591621367404173e+00
-9.795833323970810635e-01
1.431140911080055922e+00
-5.784544171737782126e-01
-1.502920453618444008e-01
7.977644881761076778e-01
7.000803262435322250e-01
8.926797615463638591e-01
7.982395845454528516e-01
2.557437869753567572e+00
-5.453192855056357979e-01
-1.078390886927008241e+00
1.477388542093705182e+00
2.482408137272365534e-03
-1.948651486828765211e-01
1.443610614439007955e+00
2.748366686260910186e-01
-3.872502249490645809e-01
5.600708120041625326e-01
-3.761118081266944246e-01
8.054404906075106618e-01
-1.898337932661964711e+00
7.641542155161687999e-01
1.446206046494515896e-01
-1.288846112944082245e+00
4.240488889205058509e-01
1.231782883703150810e+00
1.420819779727444221e+00
-1.836278242736841815e+00
1.998392050782210605e+00
-1.592590621076827251e+00
7.785658307011866786e-01
1.665162046770197524e+00
-7.954238537209146198e-01
7.951171994553178912e-01
4.478330839205396652e-01
3.551863938373675533e-01
-1.325195783789286486e+00
7.746297967168402909e-01
9.669662126735452112e-01
1.946893966750737337e-01
-6.840472588459944880e-01
1.207614742366080463e-01
2.008653324647008631e+00
-6.756821467847149432e-01
1.512049698923958907e+00
1.017341885383447497e+00
-1.197052462847071119e+00
-1.726466946976342509e+00
6.448944620173714393e-01
2.980439362164745143e-01
2.155077721599462093e-01
3.669924368906012369e-01
-6.503769986177465601e-01
-1.508992373478207805e+00
5.515242522093186661e-01
-1.125250454631343988e+00
-2.762593813712798108e-01
-1.782148652580365589e+00
8.004278750200328751e-01
-5.690543278343567213e-01
-2.180727716267178984e-01
8.954440763805981973e-01
4.815787557560530230e-01
2.231520616457861372e+00
-1.285817626891456511e+00
5.997674793791961667e-01
9.967747779456488377e-01
9.683644795031800534e-01
3.154423929430950069e-01
-1.574215518434916028e+00
3.332820213184951585e-01
2.173838601524668568e-01
-7.283769540386465513e-01
8.291026559759224757e-01
-1.790772952299993337e+00
1.380324698672801276e-01
3.928870904893575489e-01
7.271694813605714680e-01
-1.630850770685516316e-01
3.030234379527858013e-01
2.676403927477372102e-02
-1.481483378193016454e-01
-9.751907371501062904e-01
-1.466518398022878866e+00
-5.914219475994444419e-01
1.071853983333160287e-01
4.458698339072373340e-01
4.827278352657982108e-02
-2.729615688881251945e+00
-6.141313640234187243e-01
7.099078341283403537e-01
-1.562181196227006019e+00
-7.560489067265617757e-01
1.173660618236428699e-02
-4.701270658017259185e-01
2.326340211189674156e-01
-2.525470799851380899e-01
5.413515051219780494e-01
-7.882117764134285443e-01
-2.273250418541238882e-01
-9.623608593829551250e-01
-6.749837024346380665e-02
7.648885586398675995e-01
-1.356809840646504783e+00
2.948582273448047131e-01
-1.260360413452875417e+00
-6.061333482316860755e-01
-1.950410607617434344e-01
-5.458920236883990640e-01
-1.712582879522897450e+00
1.323410665150854371e+00
-3.782423549883763281e-01
-9.650525815795352180e-01
-6.593818203369545827e-01
4.158795877704846156e-03
1.163589032401977086e-01
6.517251881885459674e-01
1.865557103454854593e-01
9.290237831092462706e-01
1.112226182923988782e+00
-1.190701996902835624e+00
-2.401885654434341433e-01
-3.718511419400481466e-01
-1.135075239224147436e+00
-2.733852680112743849e-01
-4.374325394153900093e-01
-5.327099012234769448e-01
-7.761607054500114788e-01
7.079348379623414678e-01
-1.693980638633216240e-01
2.321682617865601372e-01
-1.412891934576715247e+00
1.663868565539274869e+00
-3.235573979665483657e-01
5.332817541008428863e-01
1.175740964996425664e+00
1.535937239304153989e-01
9.347126905634770555e-01
7.976980660151180569e-01
-8.377629320600701313e-01
1.739452166376189157e-01
1.985125532036106755e+00
7.025245889276505729e-01
-1.323778300439449662e+00
3.985586535542554043e-03
-5.368816900671551373e-01
-3.963749300424584954e-01
7.370588866788131410e-01
-4.389429714873234190e-01
2.689174291275187034e-01
-3.432577845707571740e-01
1.278668371260339054e+00
5.137531709706416594e-01
1.193388701607617508e-01
-6.794497504769304586e-01
-1.398689367697520503e+00
-2.572325046578564645e-01
2.274573574152844446e-01
1.606317508590549559e-01
1.689098803431580142e+00
9.766418899509512475e-01
-8.557184885830150245e-01
-8.605560227626534164e-01
-8.185424562893188760e-01
1.942078350563296030e-01
1.078380858908458695e+00
7.005801255139376682e-02
5.218630062225197985e-01
5.385453276171799919e-01
-5.000992775128829670e-01
1.521138125446807043e+00
-1.769726478757340793e-01
2.422955512772259734e+00
1.509893062819335441e+00
-2.340644644823995923e-01
7.081943955205639851e-02
-2.051837441293289932e-01
3.158385762878732766e-02
4.769889513231146960e-01
-1.107874167716648817e+00
9.674606868096368162e-01
2.024500967318730305e-01
3.616604450482603372e-01
-1.313616272898562976e+00
1.468411404549144206e-02
-6.732652465319601820e-01
-1.693840549928888883e-01
1.143692325037837465e+00
3.754115422729451534e-01
-1.079033474682711546e-01
-2.676087230384267546e-01
5.554571425233232329e-01
-1.604444221301895235e+00
-1.787133536131688405e-01
1.360891151485085215e+00
1.070824763391604373e+00
7.334396803267106968e-01
1.803294351884736635e-01
2.732450338165519632e-01
-2.512721534326304851e-01
-1.512766804731601467e-01
-6.127860726887339737e-01
1.521211216217427165e+00
1.032239836011241918e+00
5.131095500359110495e-02
7.922500036461921358e-02
-1.686281218684864691e-01
3.494017910065648769e-01
3.280322216137100677e-02
-1.925069349694007004e+00
-1.351572866514774818e+00
-2.178986175469117548e-01
-9.623052973088012940e-02
1.055239575806198038e-01
4.415439351274205726e-01
4.043386432974053202e-01
8.810197322176369084e-02
-6.511858139739791218e-01
1.004267651566552066e+00
2.502473737825184896e-01
1.238591733871746037e+00
-5.035613093073940671e-01
2.157530303544156480e-01
-1.514739904942693061e+00
9.410526773209886287e-01
-5.086721923226263931e-01
9.199685026089554629e-01
-7.579340687179938474e-01
-9.419188235702655176e-02
-1.550320124050770465e+00
-2.124003586888101314e+00
-1.123121608863251186e+00
-1.456652578495496730e-01
-5.948773244004318395e-01
3.572266372697940340e-01
3.961749500823118497e-01
-9.200914541412125169e-01
-1.205118695510173366e+00
1.270495664048894691e+00
6.351731486026468421e-01
-9.721453326511246829e-01
7.152759187090399484e-01
1.490935498954003013e-01
5.718800986545885534e-01
1.095759998369885135e+00
8.457625060410400852e-01
-1.361890417292903832e+00
-1.212787735338438200e+00
-6.842334428778297228e-01
-1.492437133395566384e+00
1.291238933988583470e+00
5.427372028806485282e-01
1.012295722818706167e+00
1.856609984791699031e+00
-2.165215398513953282e-02
-8.321983643246033679e-01
9.584787128457274985e-01
1.592932965023974523e+00
-4.653806814410477721e-01
5.561288094686338557e-01
-3.238624914502559737e-01
7.015061264018714882e-01
8.945962222576425704e-01
-1.610030573398858911e+00
6.456424195708542202e-01
-3.726997922145364184e-01
3.183360626684997863e-01
-1.391622056426408682e-01
3.075188213394320913e-01
2.844824310483572427e-01
-1.656403437605311169e+00
8.853835037387320916e-01
-3.140371788741391779e-01
6.674626124202486244e-01
4.959755426193341310e-01
-5.478389880830341063e-01
-1.561875187066203430e-01
1.915597790821872426e-01
2.775877342972062067e-02
2.391581014435625319e-01
-3.367852699754920187e-01
3.763793787150253589e-01
-5.776943791120086047e-01
-1.242439021800687687e-01
9.712843067683352150e-01
-1.518720821264302745e-01
9.975500497330180849e-02
-2.877461653764759042e-01
2.242760927729862269e-02
-2.986560454248855523e-01
1.020153582173749962e+00
3.015737560051213739e-01
5.565967294501285023e-01
7.942141111921229291e-01
-7.601989749428655907e-01
8.408513459014649305e-01
1.695615827886145510e+00
-9.410792248144356220e-01
8.406254992094683853e-01
8.836065895804373627e-02
-4.117987718850539269e-01
8.198089346751400441e-01
-6.803377184501253616e-01
-1.870205087993749848e-01
1.565366525567663258e-01
6.164368609435240121e-01
2.830533440693191238e+00
9.771605660238121827e-01
-6.517922376687422803e-01
-4.298786379473465979e-01
1.692740604160706042e+00
7.191613557370337695e-01
1.054497102506093631e+00
1.611090213792939485e+00
-1.033171845197254773e-01
4.867750726496853919e-01
-2.905362493319804673e-01
-3.669731984778902278e-01
-1.388388969497642123e+00
-9.680631695695216532e-01
1.047036680568238953e+00
-9.908000716333776881e-01
-6.749135223633986325e-01
-1.012343732080242642e+00
2.705118472905212457e-01
9.159149503664452130e-01
6.392365956997259069e-01
-8.931766220588989447e-02
-5.315129971251337793e-01
1.468657651241806361e+00
-9.251041230678077598e-01
-3.426407269601403072e-01
-4.673322783932832430e-02
-3.356180535768897855e-01
-1.361614316754438114e+00
4.478779790382554915e-01
-8.502233072288321036e-01
2.092726575221789953e-04
-4.945305972468125866e-01
-8.867003005079512334e-01
1.863519187123316323e+00
-6.109854847602408379e-02
6.527301607967532782e-01
-3.502007979921888947e-01
-4.761684386633048827e-01
5.837526090872438567e-02
4.330538516042667929e-01
5.302932011454666861e-03
2.991150572181378031e-01
1.254212150577304896e-01
-1.652966010299407040e-01
6.140922960730770264e-01
-7.860587812980295297e-01
-1.747028671062127447e+00
1.928091277968066175e-01
-2.588160609926085098e-01
1.058981140793366915e+00
-6.656179662271024533e-01
3.648692454548614905e-01
-8.354806220958023166e-01
3.439869443939631566e-01
-6.068688635246237417e-02
2.516366516902590056e-01
1.348084475567601581e+00
-1.420508944776319282e+00
8.567279690544429283e-01
2.143695498550784784e+00
-5.620203859472646668e-01
1.556538241321485383e-01
-3.217483736764891189e-01
-1.540693829645444490e-01
-7.153276667916965703e-01
-2.626266903179063500e-02
-8.331274019193944946e-01
1.054390716359243418e+00
-5.396305690167088054e-01
-7.802038614644796199e-02
2.801816852953729065e-01
-1.525040210148836672e-01
6.234840728630761664e-01
-4.344327405067611170e-01
-1.128923022336582260e+00
6.078204598155485527e-01
8.689893149195487831e-01
1.295517820551748800e+00
1.454776168626496391e+00
-2.651054884057335026e-01
-7.451700417428657186e-01
3.674316371829082772e-01
-6.725663932401368950e-01
6.685157219173440968e-01
-7.638614247230387511e-01
-2.128475518727369342e-01
2.505627905926121612e-01
-1.045868597228864771e-01
8.698929846762050166e-01
-2.903157026481244518e-01
-5.476344281975286110e-01
2.722517955933126954e-01
5.305287128596255508e-01
5.175855934775347444e-01
-2.824469289207013900e-01
-1.361006633798613474e-01
-2.329090833788233506e-01
4.433303637799586028e-01
4.478352553373230460e-01
-2.009925901320274710e-01
1.531009091331302585e+00
6.778979164237858290e-02
-8.191185747114471116e-02
4.774898199896173701e-01
-2.199649768324539734e-01
-7.348544869198761487e-02
1.298646215601949150e+00
1.304050728079627630e+00
-9.617800855595982634e-01
-5.472486038550247178e-01
-5.316445739599406917e-02
7.577439268660526306e-01
1.350339625418999656e+00
-4.118857982803520584e-02
-2.688085149452746347e-01
-4.831606440861586083e-01
-1.510355522299009212e-01
8.569505623003693673e-01
-8.671398415375469737e-01
8.902806637183066085e-01
2.232748615154722671e-01
1.372199070276022559e-01
-3.332110290682908094e-01
-1.041065269953519667e+00
3.110621137054857543e-01
9.712848122356644576e-02
1.791763231081997532e-01
6.620699008762785942e-01
8.435079518309382962e-01
-5.640071070890655125e-02
-3.235722357778112457e-01
-6.866056941935653191e-01
1.184880434473932487e-01
1.199736605033539627e+00
-1.325977765630095007e-01
-5.016075074340646811e-01
3.926583681903834666e-01
4.359665553350550726e-01
2.453825936809814756e-01
-5.073320177145858034e-01
-2.044587018481582030e-01
9.613779196293172902e-01
-9.335387684307994149e-02
-9.552068655231259475e-01
2.454160349074860636e-01
3.383273874733580544e-01
-8.883389128136360835e-01
-6.353872311548998120e-01
-8.053915488766876241e-01
1.374423313419674830e+00
-1.748742760001299468e-01
8.187195779685098040e-01
1.300979267449345000e+00
-1.396866911719581772e+00
7.590413601744618877e-01
2.577454991800821882e-02
-5.363999739289168067e-01
-1.967544782251121060e-01
1.226869934578295185e+00
-9.026160657239041818e-01
3.423665735213335393e-01
-8.509550405244770133e-01
-1.512154281659424115e-01
4.779140847511172130e-02
1.764623293724154052e-01
-5.706239592886512835e-01
-5.002542773706355472e-01
-5.088351824597575623e-01
-1.476219073108844704e+00
-8.033863870636609450e-01
5.152698093481859754e-02
8.983744909144376622e-01
1.067285162281905064e+00
6.129799691280863883e-01
-7.202877801397591928e-02
-7.348848552900859588e-01
-3.829558553399345922e-01
-2.256429867447098392e-01
-1.181298798841407649e+00
2.237538632241767189e+00
-3.072223895822813744e-01
8.603055182410824786e-01
6.648332736943314281e-01
-1.034198827155668354e+00
7.983226781248540238e-01
-5.858970445580845565e-01
-3.689498895726863736e-01
4.883353435994277486e-02
2.527891321460083995e-01
-4.327809714763459770e-01
-7.636993473975858260e-01
1.393662508329222671e+00
4.635803461959388527e-01
6.116526001083752995e-01
-1.067712760587025356e+00
-6.579383669040637095e-01
6.736947584876656903e-01
-6.803707396878582170e-01
-7.554720274973081295e-01
-5.427859765574063466e-01
1.169824018655998055e+00
2.923108864192101031e-01
7.336245722622657117e-02
6.368797857449739475e-01
-1.528890599132927575e+00
5.421029127171665685e-02
7.639131311992111151e-01
1.162385801705220073e-02
3.374840293180549899e-01
-1.433404860111993639e-01
-2.217440146351065677e-01
2.575996706933270097e-01
6.894059105948043831e-01
1.910468164699368421e+00
1.069735878522611733e-02
1.673129887858222364e+00
-1.243388256383947121e+00
6.661315938738975317e-01
1.430941937355725280e+00
1.569181555923140903e-01
2.024239248598038582e-02
-7.918162061648659211e-01
-4.051939282880744342e-01
-2.128470367358205606e-01
-1.213092386919026655e+00
-4.973240700359646271e-01
4.345139112252466990e-02
4.546754952322790838e-02
-2.572422668741434215e-01
4.215901936705349629e-01
5.733798079296394956e-01
-6.844871996319449314e-01
1.078688661677947719e-01
-1.844743332128585822e-02
-5.488276053128884335e-01
-1.169324766993975695e+00
9.318405644835688062e-02
-3.659857888750854826e-01
-2.000667340237632930e-01
5.618227141659402069e-01
-4.127542663067053641e-01
7.354211160583444817e-01
3.421139580865264485e-01
8.983096901414314717e-01
2.134247708894385642e-01
9.157919072920928105e-02
-7.273042259563557987e-01
-1.907583039807957820e-02
-7.187040030313521788e-01
-9.081815895493147162e-01
3.187744922079000509e-01
3.117796122321512819e-01
-4.013392888072839781e-01
1.567638165733795219e+00
6.270484056597722677e-01
7.382461782084033253e-01
1.565200574107071807e+00
-8.504605728103336038e-01
2.656821741529414860e-01
6.959834938203637300e-01
4.552091815979995154e-02
-5.386042197290479006e-02
-2.421379325790375125e-01
8.468302781834441406e-01
-9.883705151142908596e-01
4.121784575495939240e-01
-3.719134286943764911e-01
9.657512021895987564e-01
-1.211441085777507753e+00
3.810550007543507534e-02
-7.673218856686159217e-01
-1.357037173272583441e+00
-4.413807614550522285e-01
6.663684532227083235e-01
-4.699305883089281433e-01
1.485045360922995217e+00
7.864371885671891382e-01
5.238887556165300330e-01
1.520388476775723086e-01
7.904068103706158865e-01
9.742370336592439672e-01
8.538372464447090415e-01
7.421520045666968324e-01
-2.377825414380677627e-01
-6.910174706158287439e-01
2.565869923662581487e-01
-1.941101740050712177e-01
1.680849960477355243e-01
-4.319920193939607023e-01
-5.280780913156515322e-01
-8.257636139513826468e-01
1.180937366779742481e+00
7.413194420861386469e-01
-5.963292565716022953e-01
-8.218488298140763648e-01
-4.949880584744536516e-01
-1.431183058633585636e+00
-3.079575588729959734e-01
5.026884855716888811e-01
-4.823199387129329385e-01
4.119260962078545862e-01
-1.191274108589875258e+00
-7.048306379119119169e-01
8.817224611354527175e-01
3.755371305616226896e-01
1.639548395744843345e+00
3.536601485434932579e-01
2.811201508836099761e-01
-2.104416842268196364e-01
-4.089969806205890901e-01
-7.303620232751260044e-01
-5.205938464120114795e-02
6.760124741474065058e-01
-1.284087912063708536e+00
4.314805335393451236e-01
7.284515239204264470e-01
-9.528693006848071301e-01
-3.483440791584335727e-02
1.413095301485277178e+00
-3.007207964598989092e-01
-3.188792266282179655e-02
-1.164021221060330902e+00
-3.954154903411166155e-01
-8.432633047824102945e-01
-6.953337133904725909e-02
-4.356066352801815644e-01
-1.028270446977230940e-01
3.348217434802852610e-01
3.352993576976974199e-01
3.051215636673401121e-01
1.013127111079245468e+00
-5.842258235573183356e-01
4.534357553212324810e-01
-4.444818372815580176e-03
1.388141564269829153e-01
-2.153357440154508307e-01
-5.961563439830277478e-01
9.804775949122346290e-01
-5.252024780658148817e-01
1.648706744266859259e+00
-2.574033931166411215e-01
-1.413612144721491548e+00
8.317947462794684776e-01
-4.398432167343409999e-02
-6.046302047904041910e-01
-3.080412827514538154e-01
-2.408230778277337669e-01
-7.736609554832433178e-01
-2.309011633543226749e-01
-3.833402616651532813e-01
-4.037012318341360317e-01
-3.875577978782487332e-01
2.489561271201619630e-01
2.813226007449342592e-01
-1.183588921226621515e+00
4.069332489866708258e-01
-8.406699505987071941e-01
-7.540147341067287012e-01
1.790615851087127508e+00
-4.457637012999997039e-01
6.193369693378053542e-01
6.759761077994632661e-01
5.520966489435450431e-01
4.065464073913739873e-01
1.491033537424238109e-01
-1.041204814457522110e+00
2.081428016105788814e-01
8.258999718904540543e-01
1.171861337629692690e+00
9.233383204099786523e-01
1.024624276527835054e+00
9.185251395641078620e-01
-2.308762994971931271e-01
-7.812945693625220622e-01
1.563354723685259406e+00
-5.660675204595554122e-02
3.191459544625633860e-01
-4.542098766035427282e-01
-1.385477351413922364e-01
-3.871264025685910437e-01
-4.016803123854553181e-01
5.411306889930508901e-03
1.442910968198130583e-01
4.787192947447354019e-01
3.574162191160718538e-01
-3.458930518770416129e-01
-1.632447584444794098e+00
-5.258878582841064464e-01
-4.669222675345236495e-01
-9.400780941596192930e-01
-1.691375916673237140e-02
9.842483324798261268e-01
-1.127624887853492019e+00
1.187432692774684218e-02
1.236662999881240621e+00
3.680732220786301911e-01
-8.173133738542476268e-01
-1.058081107652985242e+00
1.102282949751579311e-01
3.696208764693339477e-01
-7.948749547077617050e-01
-1.886861342574103761e-01
6.876961102401704107e-01
1.667444619963215136e+00
3.273432396045748427e-01
-1.181184056159386292e-01
-4.485184755565900239e-01
1.274769660047712083e+00
1.296379035716635597e+00
8.424674251464200347e-01
-7.183285185712643406e-01
2.297011809848520381e-01
8.778924862836370302e-01
3.427025589343467571e-01
-1.425219498778051985e-01
1.006146588946385201e+00
1.675021618192067963e-01
-1.425274912104680103e-01
1.200911971369483577e+00
-3.456470158304241758e-01
2.281044303620370917e-01
1.522828610927442039e+00
6.810014781903594994e-01
1.467538122421649716e+00
2.274219526243978495e-01
-4.066594223322788637e-01
-4.372062253293103051e-01
3.226464272388803178e-01
8.385950961668997561e-01
-1.453938512670803318e+00
1.017798774069111900e+00
-3.342618456921898074e-01
4.749938658361325672e-01
8.138604975225015303e-02
2.384130490092026822e-01
-2.983033934344513916e-01
9.342128602708409391e-01
-1.588893182649010749e-01
-1.655839352382151852e-01
1.645425861553567390e-02
-5.904125988966071326e-01
5.457123534465994075e-01
3.502514252532283878e-01
6.971189853971101469e-01
-4.109469769940836126e-01
7.969695797240716750e-01
-3.363118410218964294e-01
1.658625388697235303e+00
-1.428946405523951746e-01
-1.862704129703617595e-01
9.660693820627468398e-01
-7.677507814166174560e-01
-1.731213322665733911e-01
-5.046523332508450199e-01
-3.508777726192983115e-01
-9.606457496056465539e-02
-4.528500059039965164e-02
-3.307970483768519765e-01
-2.734707872242945342e-02
-3.919310264422464773e-01
-1.448196231128806355e+00
-1.086212028583163347e-01
1.086957101066306386e+00
1.654494060429835545e-02
7.695947066726424035e-01
7.685918991872342509e-02
-7.271574001554999278e-02
2.457872930948259982e-01
-6.275592078772285198e-01
9.841113499730413938e-01
5.011197428180980129e-01
1.094204280323539891e+00
2.451703687302013712e-01
1.181202994627758851e-01
5.940910050402615772e-01
2.303103113014552325e-02
-3.351843169661680166e-01
3.426202364642067510e-01
8.136753174210762385e-01
-2.301377245534616811e-01
7.490814287595054521e-02
-2.510675868015993517e-01
5.143054250451847276e-01
-4.773247195176301416e-02
-1.462611575699666266e+00
5.911863603593237038e-01
4.342137980442009604e-01
2.687475989327998138e-01
-8.702892964312834989e-01
3.967189485486289913e-01
9.908851798913158593e-01
8.201365180781444719e-02
1.661340991312443949e+00
-3.405370095489278909e-02
8.363767971571499649e-01
-9.262285170088279118e-01
2.033674261591563726e-01
-1.092592465575605409e+00
-2.134418963452182627e-01
6.449006927418694801e-02
-7.447048092919215101e-01
1.634938886374712741e-01
-1.043666123814648738e+00
6.086286256894652968e-01
-9.461686385818369738e-01
3.794350707326041849e-01
9.558902024554297161e-02
3.915724228220846537e-01
-4.726358514022555024e-01
2.992020615700201058e-01
-1.246035827661372136e-01
9.140260639419685307e-02
-1.183380927687669004e+00
5.474757084512350824e-02
4.653199189758810972e-01
9.275661118391187454e-01
-5.902098301272525882e-01
-1.598752475323361455e-01
-3.696316848263544314e-03
-6.311496428574969730e-01
-1.016415963416321233e+00
-5.069779338506626987e-01
-7.958831313138633456e-01
-1.645233330572640762e+00
-4.490917902493719027e-01
1.300587948950406858e-01
6.011874811528239437e-01
-8.052600624674133289e-01
-1.837275067773267434e-01
1.959261122088827023e-01
1.210028005460287437e+00
-9.803090695391691867e-02
-7.781685097287577291e-02
-7.124344471145802604e-01
3.217364509553631291e-01
-2.105669561014776592e-01
-5.106298558230456530e-01
-5.197401643763690515e-01
2.858520844078122902e-01
-5.100470321950231201e-01
1.774087088949725111e-01
-4.542598159593165541e-02
2.869534437327226836e-02
-2.920626256692943068e-01
3.813209530953555193e-01
-1.421922338645020267e-01
4.123004648164477898e-02
-5.035794696312341223e-01
-4.558030990107471148e-01
-1.645937723148606646e-01
-1.513826836264767772e-01
1.539334001503686489e+00
-9.694458436285268155e-01
-1.309938852338272230e+00
5.644469187971136170e-01
-6.744303403162459354e-01
3.560486968327297719e-01
-1.162760894939340428e+00
-4.083060046919275710e-01
-8.187570592298606398e-01
5.476438660582508833e-01
-7.446979096978434409e-02
-5.141740441802530315e-01
2.207647221933923820e+00
8.512936385199278144e-02
3.741347759412795293e-01
-1.363829094009824994e+00
-5.570486156342451256e-01
1.383859508095785396e+00
-9.548316550658488833e-01
1.249049646226623178e+00
8.960675674686702230e-02
-4.288937623118673215e-01
-2.960555979452687558e-01
-1.551549848938049925e+00
-3.028335497846738888e-02
-1.907930294626785095e-01
6.287039619797817336e-01
5.448312321787760482e-01
4.769862692326022335e-01
-1.589326903389223500e-01
-6.686449146750949035e-01
8.937807523821083011e-01
5.074997650704802243e-01
6.554002178237453013e-02
9.386903936398868775e-02
1.309715046501668534e-01
7.218467272555050274e-01
-1.172366995151235658e+00
8.091716854542412296e-01
5.067791786314291835e-01
-6.199280242309409550e-01
-7.729369249245076068e-01
8.108302857452072132e-01
6.929306200603897459e-01
5.460595575388443867e-01
-2.247362260976011050e-01
-1.152365740681240425e+00
-3.877929787731383415e-01
4.564048799844344639e-01
8.314590718956145210e-01
-6.728196969416220252e-01
-9.304285596862137409e-01
-4.972798817950647154e-01
-3.372425832813029656e-01
-5.263216753394307501e-01
-2.168541218905635504e-02
-1.578183808974378266e-01
-8.178610055044475136e-01
2.688444341341026944e-01
8.309543713753060334e-01
8.913672439762296840e-01
5.785406827173752431e-01
9.407541310891862074e-02
3.486080850308983514e-01
-4.296815888810772699e-01
2.606553750846559575e-02
-1.043370096053905405e+00
-7.965431778209960956e-02
8.118740426639432517e-01
-8.576176944700463212e-01
-5.448724353030658385e-01
3.640046476039307533e-01
1.731823199710764427e-01
-3.112668007239739465e-01
2.771958429717141445e-02
-2.626411387048466217e-01
-1.101661656928203115e-01
1.791329937458870647e-01
-2.081633973342166266e-01
-3.607353413700341571e-01
-2.482415100052026979e-01
-1.130726448135712214e+00
-6.810813308909484665e-01
-8.642713849622918332e-02
-8.406956250148318877e-02
7.736483083356733292e-01
3.636800744881523162e-01
3.960562515594146515e-01
-8.886746026954632782e-01
-7.604304943631682301e-01
-7.213913437621848335e-01
8.490461115143532744e-01
-6.382246146254756392e-01
-4.465318195041669269e-01
4.383413654626185929e-01
1.419866971901191155e+00
1.043654976193786776e+00
4.199351347748744301e-01
-9.941922165045095072e-01
-4.425666796824407334e-01
1.954703501030808366e-01
-1.493224474259913892e+00
-1.313181062949942413e-01
-5.879197166873088021e-01
7.348818906322547306e-01
-1.186927944193972850e-01
-2.442525054374954652e-01
-6.647469600842994542e-01
-4.531570239345076856e-01
4.591822486346204824e-01
8.706247768174051327e-01
3.024336968008201065e-01
-1.614156539030961457e-01
6.096647666808951982e-05
1.526655963094915580e-01
-7.163644398961888093e-01
1.935701314781715920e-01
-8.551207565302677838e-02
-3.258747779172097570e-01
9.321102857722892709e-01
5.253261179838428774e-01
8.674564525806149895e-01
1.621865031712837191e-01
-7.866697345792847962e-01
-1.252977897455483269e+00
-1.364324549781863016e+00
9.826631818610322977e-01
-5.950874165503192148e-02
3.126319836870944391e-01
9.609711044618221010e-01
-1.666395440125728600e-01
-6.585395762499547390e-01
-1.258034415517638838e+00
6.000817491679371063e-01
-1.190740386882980006e+00
-3.312979927165071170e-01
4.044480533229956043e-01
-8.399838213265278242e-01
-1.381967847331554422e-01
2.907724185366004632e-01
8.053061198515616415e-01
1.012534097952925149e+00
-2.101980517690596739e-01
-4.458520642406660905e-01
7.964741950311133856e-01
-3.035286561939113947e-01
2.705907029175975143e-01
-6.806211368694202735e-01
-2.271046592929493735e-01
-1.002205813214874563e+00
1.328138946484771932e+00
-1.847215502180196978e-01
4.639218589425835315e-01
3.495808757313048076e-01
-5.708971381896832398e-01
7.061204697322820412e-01
-4.514738361698639735e-01
1.292609612155684928e+00
-6.304665378951045396e-01
-4.742721772984318518e-01
-5.355639824085685063e-01
3.216492158486363162e-01
7.620275783508569933e-01
2.281838516730450295e-01
2.861541087626212621e-01
2.157771889724933445e-01
6.668357181716387805e-01
6.735016290602524602e-02
-1.020691501685231095e-01
6.012251739330572164e-02
6.393284495626968544e-01
1.094289890684928546e-01
5.347705125271993154e-01
2.836626146306939211e-01
1.160874934865191221e+00
-5.092801246246521085e-01
-4.088364697997161068e-01
-7.160589920931115238e-01
1.716357163970477773e+00
9.577129714015053530e-01
2.467355633309702978e-01
9.574502550443402260e-01
-4.617455397589446120e-01
-3.199398110708071008e-01
4.625558554664058741e-01
6.362663415852565230e-01
6.036264081964679562e-01
-6.335790494334420098e-01
2.463954394696370176e-01
1.690436184750006565e-01
-8.274792805031445653e-01
-4.989244346915138739e-01
8.756297077265472462e-01
-5.380646184459025871e-01
4.730479369133768208e-01
-3.838217487384079085e-01
-9.621819777457434331e-01
-5.280126908434554789e-01
2.859847313309223371e-01
5.245146996413480034e-02
-1.176087677158707878e+00
8.130271325643636526e-01
-9.532279589837848732e-01
-3.052097742939832714e-01
-5.567533457046043299e-01
3.562487929327161074e-01
-1.480362309390163444e+00
-1.796947356185545908e-01
3.209429676691807898e-01
5.950433202976766062e-02
3.093579736353767595e-01
-6.197704426523510668e-02
-1.013232492142471131e+00
6.361145908041316854e-01
-4.061354263070868775e-01
-1.418713709492342989e+00
4.654991289756026385e-01
1.689870172633006415e-02
-5.879786033501890885e-02
-1.829599656645387595e-01
6.180069930783834709e-01
-5.690803171112648329e-01
7.970641996527313977e-02
-5.062240799507879974e-01
4.855276810699903356e-01
6.390836116871904116e-01
3.577518902044975468e-01
-7.273008042572680631e-01
1.084157739415914534e+00
1.054897244459195971e+00
6.474915579894816586e-01
-9.816289588753479567e-02
3.395260965828646171e-02
4.585883950511999152e-01
5.285587687112109911e-01
-4.347690225362013661e-01
-4.670547111659155148e-01
1.282718128090778731e-01
-1.109578624341378550e+00
-1.313934080436675034e-01
3.995123691049881631e-01
1.316759121095521234e-01
-8.517899773311624623e-01
8.191157929494270740e-04
-4.052059215416069504e-01
-4.769809484362044771e-01
-3.905885365834337042e-02
-1.278283090155956092e+00
7.482949219681370723e-01
9.230149620117588105e-01
-5.440091997542910729e-01
-4.926291774086217212e-01
3.958146872273227701e-01
-4.887052522420026190e-01
1.565631131665981446e+00
4.104668559612393297e-01
6.874666846530157471e-01
4.941094739950760983e-01
-6.072188869887649165e-01
-4.317757553358493872e-01
4.458877882506054324e-02
-4.554907930449142994e-01
8.992545734526247170e-02
1.910163311093537875e-01
1.348663857913443342e+00
-8.013890898527971096e-01
-2.470769178296658986e-01
-5.520455207806886921e-01
-5.838885460957876639e-01
-4.043091771760945474e-01
1.044495213039645876e+00
5.160209703911400325e-01
4.494075662049267783e-01
-4.804994669054853118e-04
1.962205967060193235e-01
-9.176339507561406261e-01
-1.629876952426604908e-01
-7.663069532687402652e-03
5.806350733812642995e-01
-2.030036708868053208e-01
1.239059840490693287e-01
-7.479328110884114755e-01
9.226992191912324337e-01
-1.228713438439319044e-01
-9.558006074658445539e-02
1.281983615532353293e-01
1.052027117114061827e+00
-1.289864292253528055e-01
-5.888411697392409438e-01
-1.028548991258497330e-01
5.690791871050727702e-01
-4.177707456168114342e-01
-1.028555132293947683e+00
-4.762535769556842102e-01
5.657965836707038454e-01
-9.033710238940304560e-01
-1.816335313927547324e-01
-6.163215624095097489e-01
-5.456570439020751867e-02
-3.709899289655493315e-01
-3.431667842173970473e-01
-5.345194560242850779e-01
-6.001127413812596956e-01
-1.029283013844184136e-01
-3.756057674069346874e-01
6.975954597725195216e-02
5.112526112593263061e-02
1.014763038830132302e+00
5.337784526200384239e-01
9.859691615641323903e-01
1.051320937859356319e-01
6.398333475180610908e-01
-9.373056126578102054e-01
3.173317436283808468e-01
-3.993369658828915120e-02
2.422714970684262115e-01
5.568896601111326117e-01
8.846311875851418094e-01
-7.906852126983476836e-01
-1.331446524095235284e-01
6.373715947010279992e-01
4.653770424218109936e-01
-3.527654327009139279e-01
7.293994445000707705e-01
-6.055747321925145088e-02
1.196320370676171141e+00
1.757180552902360693e-01
8.634937835871517309e-02
1.710692636804290179e-01
6.486473644954637852e-01
1.138550604738926220e+00
-2.841666593937288154e-01
5.307402828181851939e-01
-5.293045836266111470e-01
-8.505566048072048246e-02
-8.240369857889828786e-01
-2.287008565629873313e-01
-5.518612113524591356e-01
1.457526085216821199e-01
2.409734295346531441e-01
8.352346400844037344e-01
6.472206880937020346e-01
-1.214397205619307307e+00
-1.429416404885530234e+00
1.313072073135401752e-01
5.804606264332787813e-01
1.484540717272637700e-01
8.390194448576219211e-01
7.660959080571099200e-01
-1.744568345268786846e-01
-3.303447518385644460e-03
-4.085387853514224621e-01
-4.551002134975029034e-01
8.201762038315171255e-01
-3.120469788486517349e-01
-6.109428482517395009e-01
8.998713851112297712e-01
2.672179370380938224e-01
-2.192893668948996122e-01
7.882187258963486709e-01
-8.531728343823143934e-01
3.370590370098349164e-01
-2.472318245082897881e-01
-9.561696277456059601e-02
-1.025431202139534648e+00
7.102902204077579107e-01
7.163885523411317457e-01
1.145613239435446573e+00
9.722554709737348325e-03
-9.453660389497756111e-02
2.464499980529688550e-01
1.091925495417692904e+00
6.073677382721189011e-02
-7.214039917745512787e-01
1.399366079196879387e+00
-3.914684279109352794e-01
1.406094857508815577e-01
7.330632874877013316e-01
7.096285453911121976e-01
1.746995162774778870e-02
-2.360491021667557865e-01
1.087367950588242538e+00
4.569489421149416919e-01
4.921216984962279439e-01
-2.306625699519330719e-01
1.674216746238000875e-01
3.004436024138159023e-01
-5.679819531598126470e-02
-1.147998998542361759e+00
-1.313233107369217445e-01
-7.024007829778801393e-02
-4.913714928572477519e-02
1.003148146390775874e+00
2.832899645645116093e-01
5.272205764850319137e-02
8.303546913401103069e-01
6.344552812990638113e-01
3.940237636754611583e-01
-6.728645671871150147e-02
-2.163360687817770731e-02
-3.758469287293460526e-01
-5.857348896542369232e-01
4.675260313726125605e-01
-1.993349499828726279e-01
-6.809368339541727044e-01
8.246392020793669175e-01
4.239569090168694432e-01
4.311482659324750721e-01
5.025951105768168281e-01
7.971877914079646965e-01
5.434604984899324975e-01
8.895338812161317221e-02
2.722546876316387920e-01
-6.636968042960831315e-01
-9.370040058137271144e-01
5.237934494344396313e-02
-4.690593300435841884e-01
-1.877254749980296622e-01
1.176451609595455583e+00
3.925095852185690459e-01
4.301406796371181618e-01
-6.109550256801059565e-01
7.246823076582258327e-01
-7.450071099070677549e-01
-2.200115673217827028e-01
-9.084151843063813236e-02
1.807395595726952187e-01
-4.705325922158149488e-01
-4.746031905454172195e-01
4.785675570049658933e-01
-6.152162699609329266e-01
-3.324702203005140966e-01
-3.841590237115898865e-01
-6.978044656735830076e-01
-9.301401246266342016e-01
6.653531051930838824e-01
7.062699929512932240e-01
2.952373737604192527e-01
2.836527701647130195e-01
-1.033149208255454976e+00
-9.922717533186661276e-01
4.796091466953159022e-02
-7.410958081676485287e-01
-8.017374241712739158e-01
-1.670700125661176427e-01
7.078361057098991882e-01
5.032172782498666244e-03
-4.710912047930947422e-01
-4.590036816064898550e-01
-8.739538961699175323e-02
1.526454713294333743e-01
4.430151356148124275e-01
1.863372601766217773e-01
9.643761511633128780e-01
-6.051215526619292406e-01
5.450314183256115275e-01
6.842870533896351359e-01
4.913026254249728275e-01
-6.419191080052325526e-01
-6.546443079104271590e-01
1.711423056364481943e-01
-1.317841706506965305e-01
-7.213135662783569657e-01
2.399884476888266283e-01
-6.867915462205996802e-01
5.537264215297786896e-01
1.545236441029941010e-01
3.989793583136111987e-01
2.420286134900835329e-01
2.083025476892882283e-02
-3.164464243954197564e-01
1.526474718615938864e-01
1.560087497562700765e-01
3.485976915168161050e-02
1.268093731848186190e+00
1.168091491146169281e+00
1.863868493583372143e-01
-5.702881038382574819e-02
1.269486545774509700e-01
-3.772840276490987965e-01
-6.233392412823816064e-01
-1.118193671804088130e+00
5.032997842202677763e-01
3.725909421449029035e-01
-7.310539887662167446e-01
1.327837844292571179e-01
-5.629320297319827526e-01
-5.536026517803325220e-01
6.159669984601950921e-02
1.284808374148911081e-01
-9.174525255455080741e-02
-4.173392623229524867e-01
-2.151459752100844669e-01
5.691827471675006134e-01
1.022993989149559857e-01
-7.236543337162564260e-01
1.372058708885237621e-01
7.074461743365040300e-01
7.594689296308431148e-01
-5.812606097802701655e-01
4.525194777128070389e-01
7.733522243637531990e-02
1.123107512598407576e+00
1.227031321589508173e-01
-3.492107803176359160e-01
-2.950916142390442864e-01
5.703082947220593502e-01
1.347909550094008868e-01
7.716707212916761316e-01
-3.502441779889687856e-01
-5.847982522132834093e-01
-5.176495760199320006e-01
8.500988715445721988e-01
-1.505961781453888371e-01
4.486508695868731134e-01
-4.290910672724049801e-01
8.882943726903401449e-02
-4.051857476785242773e-01
-3.812708439308268304e-02
-2.698576643611288461e-01
-2.279445716447053849e-01
-3.433946977650366716e-01
-5.602567155185870229e-01
2.315722094900788675e-01
1.009498228308712692e-01
-1.269258501323361488e+00
-2.033426536205451274e-01
8.315734178992225667e-01
-7.666278672502295777e-01
-1.022399461492475570e-01
-5.470320928257429438e-01
-5.593306075798851196e-02
-1.417646002067984579e-01
1.359397487332365817e-02
-1.897575889851674524e-01
6.008245206892538492e-01
-1.919419925145637029e-01
-4.818361794700645739e-01
2.640364611087406832e-01
5.061215521387807392e-01
-5.918629396201769977e-01
6.616377762637132287e-01
-4.921183786334196730e-01
-2.467941448304168117e-01
-8.404553285280797620e-03
2.869446544112634334e-01
4.078732531607592859e-02
5.095242290029673438e-01
-1.606989878218973711e-01
-7.526788569125529571e-02
9.563109370091759098e-01
1.310050679162273225e-02
8.514547591268016857e-01
6.523472066384922163e-02
2.594388933631565641e-01
3.241900861564684516e-02
1.407100584075074434e-01
-5.816633011826824462e-02
5.656757605198543537e-01
3.439700163962883250e-01
7.913188617274728998e-01
-3.213525922204876761e-01
-9.601934168045757056e-01
-7.497302555076906794e-01
1.736032575190571414e-01
1.429020382559475499e-01
-2.072400475045024504e-01
-9.174571030127292026e-01
2.203883251730795467e-01
-2.937320093173607649e-01
4.927660925016669191e-01
6.696610354287475531e-01
1.024612370324256838e-01
-6.539578420472030862e-01
3.472757838941340491e-01
-6.621406145377446706e-02
1.122062507951421262e-02
9.208397975211941588e-01
2.579901371763262397e-01
-1.442739868256264657e+00
4.634049214599370581e-01
1.510013976678473147e-01
2.375390708075209301e-01
8.639934505677927534e-01
7.412892296194073527e-01
-2.499928968827869746e-01
-3.055691792558042352e-01
-3.844085696733984259e-01
6.638830464911511520e-01
-1.010460616783445786e+00
7.120215216664887992e-02
1.417374739328879363e-01
8.732901978433947610e-02
9.116386024574291147e-02
-4.826117182924987148e-01
-2.642191229935806490e-02
-8.456253025234518328e-02
-1.134901655645223079e-01
-2.114577646281055601e-01
-4.572345757799904931e-01
5.908122978452483992e-03
-3.161417875837110869e-01
1.508559071973293086e+00
-4.661701654250807736e-02
2.156937151228614791e-01
-5.167010107450202838e-01
1.065691676747913874e+00
6.254543021039237205e-01
2.719147184686342422e-01
1.491701354547771752e+00
4.702829192613920406e-01
3.983757626098829996e-01
-2.392706891435806837e-01
-7.525470217760655833e-01
2.576069010425134920e-01
-5.057579363250196136e-02
3.441538690951301271e-01
-4.448609479213207485e-01
6.484965215746107958e-01
-1.141665553018007095e+00
7.420905467377645337e-01
-2.114946639717775745e-01
-7.361885197691540872e-02
5.032024125509676482e-01
5.633593382030256391e-01
2.387917883406341923e-01
2.576071714928300227e-01
-3.242149028056808269e-01
-8.103742846472637984e-01
-3.705713965291846379e-01
1.547421971195280799e-01
4.415385367507959069e-01
3.722602529564889018e-01
-5.213184475023210362e-01
-1.920440567542787969e-01
-7.408005734315257218e-01
-2.201079773711253351e-01
8.968532401154286626e-01
-5.874179773017667028e-01
-3.994749157102788772e-01
-5.121047668476900183e-01
-6.195350228646595570e-01
4.012006880771220030e-01
-1.028047932719594160e+00
-1.375421336554794038e-01
-1.550822267921000142e-01
1.564970008451551930e-01
1.428023931031902616e-01
8.745251185652731796e-04
1.204308923298639700e+00
-6.434574424804924142e-01
3.852303740022852002e-02
-6.318306307471054373e-01
2.810468945703520349e-01
-1.925897953391827733e-01
1.381069138716662925e-01
3.419062813935473677e-02
-5.478791433831806668e-01
1.144667409385647261e+00
-1.427127339570105846e+00
3.546797135566464587e-01
-2.059469463980836135e-01
3.834794205128404521e-01
5.830412877345622080e-01
2.411260195131210704e-01
3.723153422977369953e-01
9.824525889300630976e-02
1.140594702424682222e-01
-2.527427677915566884e-01
8.263007763403918959e-01
4.707412695496247523e-01
6.018025328698067833e-01
3.238064320725930756e-02
-5.012455180092618701e-01
9.747642850931020897e-01
-1.269688343522444030e-01
-3.174067743526268748e-01
-2.278642369019203695e-01
1.253388303953592242e+00
-2.566069372369735313e-01
5.061393712896208319e-01
-9.912266657897131905e-01
1.221384216739725304e+00
-6.692850600419639751e-01
-1.610460702514754025e-02
-3.324814094174176615e-01
-8.420996692663059724e-01
-3.694985355956778017e-01
-7.581295260924186818e-02
1.703821694219711802e-01
-7.667432588597629106e-01
-2.227750934856249088e-01
2.958359438902283811e-01
-1.542322912122999767e-01
7.702214694235311188e-02
1.057751449485005102e+00
1.160796913233097701e-02
-5.022733930282007320e-01
8.910822001870700726e-01
-4.357457390822706833e-02
-1.132390907074283248e+00
-5.493352290322464082e-01
-3.555132214688710990e-01
-3.661635416628964412e-01
-9.784643258200696747e-02
1.110031735408826756e-02
4.479805732718228350e-01
1.761561719591874797e-01
-2.006242973304298849e-01
-3.913193754373589517e-01
-2.685602545554700016e-01
4.043183456570806911e-01
-4.041439552552401060e-01
-1.462289121124288882e-01
1.146852066664640235e+00
-4.342844430691567559e-01
-1.411862553147597843e-01
1.612013309230158065e-01
4.703373621864617021e-02
7.269645642653352335e-02
-4.638876764187995216e-01
-3.614553463245092635e-01
4.307086249509839426e-02
-2.249105477670580167e-01
-3.552462353953902419e-01
-7.750903401864268627e-01
1.342808588545917892e-01
-1.168243090379661592e-01
-2.763983516797146600e-01
-2.537661273874587953e-01
-3.119305835063932442e-01
2.830373545730435758e-02
-5.334432701812081429e-02
1.412135101873485954e-01
7.005062863258643135e-01
4.983485652529757171e-01
-2.649001668489918693e-01
3.231706790838309029e-01
9.801295469257513826e-01
-6.896462712068804901e-01
-7.501345300868477173e-01
4.872791802378925730e-01
-1.111461943696397670e-01
1.392005983209072262e-01
2.516396250102385657e-01
8.670188413130378580e-01
-6.783724501773172877e-01
6.585187841054467549e-03
2.980891291527317244e-01
6.754765887482371278e-01
-3.115436522870478897e-01
8.983527776707036505e-01
-3.293000404260569558e-02
5.047554812083046016e-01
-1.811215719662946089e-01
5.951000732083814304e-01
-2.463248453072417465e-01
3.442619361816547929e-01
7.260806690918119033e-01
2.261078100419735594e-03
-1.876296039995107301e-01
3.243561087731441916e-01
-8.029816563221818526e-02
-6.379562885247761495e-01
-4.231581344309019999e-01
-1.120584961673181668e-01
2.755073402543796734e-01
-1.700235959203210412e-01
6.511541350009935059e-01
5.539568336219858891e-01
3.925453480470479373e-01
-3.571829663153375939e-02
-8.550051263890263986e-02
1.291176556938023468e-01
1.966193473137023418e-01
-4.464457715753198941e-01
-3.627124640109006815e-01
-2.324968096956931685e-01
6.342442951817245378e-01
1.364905260107694140e-01
-3.268421191671149612e-02
-9.180863769464935042e-02
-2.914813738174782953e-01
-5.226315090308561451e-02
-5.991173897653043756e-01
3.747579505622487539e-01
5.971584498881438163e-01
-3.874466775997999213e-02
-1.786905129991544355e-02
2.788206266430835051e-02
9.629235820028336779e-02
1.808239326420401638e-01
9.491159325119248244e-04
1.127729082927761937e-03
-4.398201411307843256e-01
-1.830171765041476439e-01
-5.763857975097405051e-01
-2.361058568054429097e-01
2.951159390793275938e-01
2.689685482554848295e-01
4.144754866863235854e-02
6.357538867450189812e-01
4.379986058442978392e-01
-4.944324732544667228e-02
-2.080574006136638454e-01
-9.809669275991046711e-02
6.082156880406131005e-01
1.004555466087667243e-01
4.172056974010926456e-01
-1.993789026531672948e-01
-3.080617130339317056e-01
4.766097612614570572e-02
1.189831892256902265e-02
2.137705794829503070e-01
-3.061068576997648116e-01
-3.066566861146598488e-01
-3.019213111552214168e-01
3.700718210979305756e-01
4.026017227116917008e-01
1.889088943119561215e-01
7.514072896410169122e-02
7.119439523174105888e-01
1.520152815281644310e-01
9.975686732828859329e-03
3.261912872375621331e-01
2.637147726003203907e-01
-3.171344726849296275e-02
-6.201453687416271648e-02
-1.305915595559614895e+00
-2.534808995215860894e-01
3.141402571038449665e-01
1.172967402641140300e+00
-4.188779461396427983e-01
-3.615326007790274909e-01
-3.002796696917148234e-01
-8.237994082649698901e-01
-2.196112889925466438e-01
-1.134322170185440015e+00
-3.367167800067591976e-01
2.346182145516076123e-01
7.870605997949593757e-02
4.448461439149296037e-01
-4.516506713475951229e-01
6.880738592138218035e-01
-1.772146896322545628e-01
5.367514132706286967e-01
4.905847547251140361e-01
7.972886335273171587e-01
-2.975870509003349929e-01
-7.450948486120781977e-01
-5.245039938832196658e-01
7.555187979879729454e-01
-1.091510910760538078e-01
-3.487790051020941279e-02
5.172620918397534684e-01
5.798737849490090968e-01
-1.238684449252275104e-02
6.034786868248516178e-01
-1.879919144863218261e-01
-3.990777234314788480e-01
2.325624854866239766e-01
8.542368091663611607e-02
-2.133803859930350488e-01
3.871885247078576953e-01
-2.127254763243224267e-01
7.364251176700293833e-01
-2.817206800251449428e-01
-1.520838771841399872e-01
2.512578119812819422e-01
-4.900198963933943830e-01
3.447545860629723236e-01
-2.971771546147219389e-01
-5.302179482146356093e-02
-3.019814086548918142e-01
3.043414671470058216e-02
-7.791617953867862045e-01
-1.485271411150098919e-01
-2.314000848614436723e-01
-6.307188102067048385e-01
6.462638469637056460e-01
2.505555554995366613e-02
2.368989084400370537e-01
1.090333028564727594e-02
-2.008748642352306268e-01
-2.927255588916929385e-01
-7.735837649418029205e-01
-3.682451370522943357e-01
-7.375372684528512801e-01
2.490812817732697693e-01
2.158455972630192732e-01
-1.138787809457624922e+00
7.524854099019274711e-01
9.906647940399682106e-01
2.013263170700869964e-02
-4.198941287646780762e-01
1.853471076233043635e-01
-3.872290669147113173e-01
7.766199730591292205e-01
-5.175023458848198032e-01
-3.141535207694676202e-01
2.524251437444174351e-01
-1.668927219023452202e-01
1.525937788080330704e-01
-9.496445238383200982e-01
3.510957602061493543e-01
-2.925638306369145458e-01
5.695071785723039570e-02
-1.100289122579311135e-01
3.348063930792534448e-02
-2.061780118510372559e-03
3.988502768475656046e-02
-3.442235799220367265e-01
1.220968367797333476e-01
-2.244812870612171163e-01
1.966627122166508812e-01
7.947606715327896199e-01
-1.229534635802627673e-01
1.609030726572187320e-02
-4.394780716783896479e-01
-5.872179003991493396e-01
2.178610102495288081e-01
4.157611344701738210e-01
4.089325337547977668e-01
-2.338809463572779634e-01
-7.686261152983872580e-02
7.373027884496823336e-01
8.344048181185629298e-01
5.680914408517548364e-02
1.866017003143393138e-01
5.383325373840777139e-01
-8.789085165254545418e-01
-5.383693098962953894e-01
-6.257037155972166032e-01
1.301483220516056694e+00
-4.883819421366359936e-01
9.441008679394093939e-01
-5.480508561924020416e-02
1.138385435877324187e-01
4.403702818083265469e-01
-2.416338353208216660e-01
9.109411122178323605e-01
3.416588298423701708e-01
1.514121259684302612e-01
1.699531314925566694e-01
6.874114203127529299e-02
-1.616410840194688336e-01
-2.670335823778693073e-03
-2.462881078864167517e-01
-2.705447259973691176e-01
5.041667692315306981e-01
6.970099522104915291e-02
1.984372970813048365e-01
6.891402248844592793e-02
-5.415334982664749865e-03
-5.915079906334750476e-02
-1.741850440727615579e-01
-1.006961219170971894e-01
3.657631251971030922e-02
-1.673638999307878322e-02
3.167050874526831095e-01
-2.196195215275995594e-01
3.177910508470793705e-01
1.297552408618936060e-01
4.280225748328950197e-01
3.788720435381758289e-01
-9.181132009572559594e-02
-2.832379473211896204e-01
-4.341548469618451978e-01
2.608441115396899490e-01
-3.103943471028167700e-01
-3.028968653499768404e-01
-6.270263496257489910e-01
-3.977762214814474784e-01
8.376784781317142894e-03
-4.492583492287009067e-02
-2.192707825405528499e-01
-2.318847844100551669e-01
1.323186851429505699e-02
-3.265642877983163661e-01
-1.249361601753574413e-01
-5.990101639165658354e-02
1.938030204758322550e-01
-1.765978630684356121e-02
-3.028573303746781575e-01
-9.112113305828838106e-02
-7.531885865686665897e-03
-7.955047296101536158e-01
2.939184546703468293e-01
-4.581599685115312903e-01
-1.979010909118986139e-01
2.435802497169148040e-01
-3.283953026311701162e-01
8.924104174372208265e-01
3.284371775484298817e-02
3.552941653709495995e-01
1.084416074237732619e-01
3.588226585051219608e-01
4.940220420793846046e-01
3.637961835581792758e-01
-8.866856279018571207e-01
-2.175419432448914558e-01
-3.146284657438818688e-01
-7.083564743040629552e-02
3.773933714810593920e-01
1.036025131783350622e-01
-5.522638839770164232e-01
6.172518697087575612e-02
-9.311293188969709672e-03
1.329723344704824006e-01
9.643304992278368681e-01
-8.417955207939030737e-01
3.273440497516302838e-01
-3.644737681447250410e-01
-1.050020340896580806e-01
7.967946515643095640e-02
-1.390679288186825735e-01
-1.865369012367862067e-01
-1.642242965139244226e-01
-5.336545768246989674e-01
2.676340186180677372e-01
-3.881204122537932344e-01
4.830270904523761288e-01
4.756975070305398678e-01
-4.651590971769542504e-01
-8.111442610721487229e-03
6.400264302784109960e-01
3.878161173953456609e-01
-5.952812536820906164e-01
9.112970378122356441e-02
-5.774125679307163805e-01
-1.315207478076137193e-01
-2.342829541521471992e-01
1.628755412670144509e-01
1.991817470492904252e-01
-2.300160632745630596e-01
4.097579327658109616e-01
2.632953668145718296e-01
4.683554933107156315e-01
-1.218297651833661621e-01
-1.496877864193524310e-01
-7.147097827598951625e-01
3.046584066460955587e-01
3.477516515784550566e-01
-3.732876462548015417e-01
-2.299890792878339085e-01
1.137447195306070247e-01
-4.230036265611720747e-01
5.161354712879752116e-01
6.081450330606232857e-01
1.124125576279698113e-01
-3.734585750855396458e-01
-5.314142555235765175e-02
4.277522076810967300e-01
3.449407626649443892e-01
2.940151266710103184e-01
-8.592264452084271698e-01
-6.897814974392737497e-01
-1.703903534916866858e-01
-5.140164008048763167e-01
7.218086363824244289e-01
-1.822218646930078706e-02
-2.501647260222205071e-01
1.734305845873098106e-01
-1.711203536789166757e-01
1.005349428223262093e-01
-3.480708359194827350e-01
4.990711863831059358e-01
-1.190627316029907595e-01
-1.957839277829730440e-01
-4.846123347508402013e-01
-4.443122260551354147e-02
-1.008382823216246033e-01
3.420481989573802006e-01
3.091607762234730439e-01
-3.739419883007571443e-01
-4.267970829588415005e-01
-3.926175628390724537e-01
-2.533456206646629849e-01
-2.706487129198582031e-01
-3.434321449336132370e-01
7.298090816289554139e-01
4.768660323988891947e-01
1.333249601218140512e-01
4.845645362320429722e-02
-4.798395455659424935e-01
2.501224007505292724e-01
3.387410979157741142e-01
-6.160203735605941366e-01
2.786169804471166911e-01
6.953424832500836317e-01
2.597871536439487206e-01
-5.478425627218516669e-02
1.029463629749024223e-01
1.085411742592351514e-01
-7.464753167320595240e-02
-6.968848770813150795e-01
1.592578204404903885e-01
2.671955892484613182e-01
1.201705177668089403e-01
5.745355266349817802e-02
-4.898797304108370443e-01
-4.176181096047063696e-02
-6.328607281642946170e-01
2.760611476873209291e-01
-4.385738698916302747e-01
3.951755994568201813e-01
3.540555288529311229e-01
1.520425331967191832e-02
-3.119492991472980759e-01
2.882279853937693703e-01
1.774420562805104906e-01
-5.600976508258045383e-01
5.357441509848445693e-02
-2.323173236414450074e-02
-3.633110545448920981e-01
-4.018599596741854740e-01
-4.865055850926102154e-01
-1.288475703686045061e-02
5.504253824476258439e-01
-5.382600924979422108e-02
3.437913853212559712e-01
2.248783573716428286e-01
-1.211936076876212742e-01
-3.734246459291558073e-01
1.480752870505261110e-01
-8.491307403088604877e-01
8.807582914433649268e-01
4.514709554213583442e-01
-1.061308604597630822e-01
-2.146154550671938999e-01
1.961517498222552502e-01
-9.498196002502826141e-02
8.506877144265071466e-01
4.912301677420198853e-01
-4.542359483440399637e-01
8.434006661384340492e-03
-1.310951419207732373e-02
-1.121178892670728622e-01
9.293561984158749123e-02
-2.710635125729853323e-01
-1.861327151252268886e-01
-3.730509497963054866e-01
-3.784659621365172866e-01
1.049156111538146030e+00
-2.245043721550710192e-01
-3.216479093274784429e-01
6.040377933354827977e-01
9.000302305823830451e-02
3.783349672432071986e-01
-2.774678455626937157e-01
-1.504224868935274129e-01
1.325481709947027298e-01
-1.722574828040139838e-01
-2.173428139346595400e-01
5.405520239326635362e-02
6.127434164241785108e-01
-4.450070036766718973e-01
6.450045052571249382e-01
-3.385653330461041999e-01
-7.640831187112338829e-02
5.229484877491216155e-01
-4.526668390604868947e-02
-2.538982612540428563e-01
-2.131787102511881193e-01
6.563701452811639969e-01
6.302401616829199638e-01
-3.881729683453537527e-01
1.147235686026356838e+00
-2.426708858127442081e-01
3.757328301937632453e-01
-3.655060861089550195e-01
-6.444119502068460514e-01
2.699526249685548773e-01
5.733291233832359390e-01
-1.599575607384271791e-01
4.077856354511300574e-01
4.705531952268938306e-02
-5.429922099660358104e-01
-4.842941556831293348e-01
7.864286236413958742e-02
-9.750559819383327609e-01
4.108269553826462278e-02
-7.873138391955339932e-01
-6.751999892815138127e-01
1.261723894697452109e-01
1.679916796896174791e-01
-4.757421211326293142e-02
1.547180752264533943e-01
-3.824403675791760437e-01
4.174859813280961673e-01
-1.695618370128064711e-01
-4.788228273707700322e-01
-3.281749191583756553e-01
3.623590222018489848e-02
-2.843859071173344133e-01
1.111336026398409338e+00
-2.518886321761167890e-01
1.563766136297455034e-01
-8.280618204360299384e-01
3.189691902907939580e-01
-2.615491532287136378e-01
4.197842073807869223e-01
7.058572738736132446e-02
-4.024012725269420776e-01
5.639237295585456389e-01
-1.566303551315967602e-01
3.186104394364034920e-01
1.006237606333933998e-01
7.337916394678026810e-01
-6.601936324329791272e-01
6.673435632523788685e-01
8.981638090479904246e-01
6.335443315599303959e-02
6.663257268310546211e-02
-2.642993671934076305e-01
-2.068871406926439116e-01
5.573074359834052638e-01
3.769481795614920000e-02
6.540171825643508186e-01
4.216812253424218060e-01
6.055307481996317076e-01
3.992520882202683641e-01
-2.114740704389166462e-02
1.225309361070396966e-02
1.600464037415943175e-01
1.761415758363886197e-01
4.655752188857834040e-01
-7.889812765778541070e-01
-2.024059299574151316e-01
-3.800528182168567276e-02
-2.806718045873955042e-02
-4.059887562240671599e-02
3.348926315004573384e-01
2.885903725492094951e-01
-4.097448716566963189e-01
-2.258515611345229546e-01
-5.936050408829761649e-01
2.133842125087251906e-01
2.578387879887522049e-01
5.938687107267317383e-02
3.624961077057589631e-01
5.732419729814459686e-01
2.113162154208522991e-01
6.810647547722405160e-02
-9.281151580808452151e-01
7.404349296642062650e-02
-3.311328694277052564e-01
2.064196306940550840e-01
6.549701283507033400e-01
2.979783202885338822e-01
-2.076497563808077651e-01
4.138010694501213504e-01
4.958668647618458825e-01
-3.652190366936487464e-01
-8.834321088741131645e-02
-4.930989838836797867e-01
-9.354154881830046842e-01
3.440308023108709090e-01
-1.601665182343688376e-01
6.829924367319479828e-01
3.860086991292747682e-01
-1.808148040045348959e-01
1.437673203219831664e-01
-1.953866586407536077e-01
1.640724654086548884e-01
-2.035486812677929358e-01
-3.654640015320669288e-01
4.741900962969722855e-01
-7.809347310714286339e-01
-1.797707895777852505e-01
7.010956273330538613e-01
-1.083539845867018125e-01
6.004554587071423422e-01
-5.113301600229969157e-01
-5.223975578889589189e-01
-6.505059450207076321e-02
-2.375384662371285704e-01
2.116146719029285070e-02
4.383968218441716136e-01
-2.317601804756799222e-01
-4.195001046669256661e-01
1.262049827653746736e-01
8.670520271764806663e-01
7.776810929707004272e-01
-6.005322605456082652e-01
4.752710189987661149e-01
1.552723882664868160e-01
-7.726738420847895084e-01
1.239446400235277634e+00
5.056943302852566768e-01
-3.868000302770724930e-01
4.500594392736162463e-01
-9.142965781130131253e-01
-3.214984414846596139e-01
-1.576633270668804931e-01
7.323342168326684165e-01
-5.130553855393913398e-01
1.490319595886103188e-01
-1.528210244398543055e-02
3.891448976998755360e-01
6.543580931592554162e-01
3.152007325472331312e-01
-8.708317765084976347e-01
-4.976971738682297031e-01
-9.610996939905948333e-02
-1.395626309946036356e-03
-2.798542303721054392e-01
-3.047696213640153085e-01
3.038171992397927235e-01
5.029606511407778147e-01
-5.812510181385144997e-02
4.829490292145916519e-01
-4.350535804313295785e-01
-2.578670801226835563e-01
-9.511579371115397308e-01
6.349545009537512774e-01
2.391916984624588016e-01
-4.539589819528954684e-01
4.785789769388040793e-01
2.674900518355927126e-01
-7.974629597034644801e-01
2.191013223150901218e-02
-1.334722892868604738e-01
-4.150605478555620675e-01
-4.163370162339201652e-01
2.737518465459390926e-01
-6.974574755439929552e-01
-9.197661912380736271e-02
4.620156217423338624e-02
-3.696263832878933231e-01
-3.349409550869341529e-02
-5.836476238975983888e-01
7.957604348010071105e-01
-2.142806888551047340e-01
-2.841577238698445029e-01
-1.367592437308651765e-01
3.369010397342432905e-01
-2.083319945020390904e-02
7.195773200650897872e-01
-9.570546311142277829e-02
4.529767559685649037e-02
-5.007501706915417072e-01
3.018332636834722971e-01
1.362386740169689581e-01
-1.317016906163876733e-01
2.675326608014231416e-02
-5.854106603792778862e-02
-9.315111431837361233e-02
8.321168569888909294e-01
-5.226908470074193014e-02
-3.821814702943876485e-01
9.458216432578230026e-02
4.191654129958887198e-01
9.640843611408819180e-01
-2.954589457609515524e-01
2.800894002819067641e-01
-1.705985870757855682e-01
-4.262378768501321469e-01
-3.275232840847557836e-01
1.095113368761971850e-01
-2.270196424906568422e-01
3.241236103369312532e-02
-5.702188271582492307e-01
-1.829684681224640411e-02
6.299948947674469668e-01
2.567089366994134703e-01
1.362837619607122908e-01
2.443632189254924536e-01
2.759194349047532913e-01
-7.740790534997913364e-01
-4.064263272031894414e-01
-3.721431424536931765e-01
7.077552022427899825e-01
8.597784833227124501e-01
-2.041055123245912872e-01
-1.115184027266448580e-01
9.642626881129870431e-02
4.375366448825184773e-01
-6.924569695950150150e-02
-3.496511373153801672e-01
3.367769105569155541e-01
-4.172072106448662110e-01
9.343668666377764886e-02
3.156948304571362551e-01
-1.205929134664874280e-01
-1.284209024203004645e-01
1.374673399576181454e-01
-2.229570617404263294e-02
1.349238373987632800e+00
-1.818793313522642230e-01
-4.197765610943283709e-01
4.678809105375524302e-01
2.393402051680218190e-01
-1.633576617457566452e-02
-7.302940827091730647e-01
-1.230869885055374813e-01
-1.238566404025144146e-01
-2.166628231969611740e-01
3.588436014090168880e-01
1.192330647223435874e-01
2.033882211532961337e-02
-4.698432875794515962e-01
5.708228507643898775e-01
-2.847671322278034212e-01
9.271256724442399344e-01
3.477053834578281988e-01
-1.180949019922039739e-01
-2.106962791569916282e-01
4.357294341428741280e-01
3.200158546255256198e-01
-2.462156411016961088e-01
8.524579649217620125e-02
-4.746526493922678669e-01
1.646494553658526538e-01
1.654929541720255304e-01
-9.081402085190889983e-02
-6.714126010151820478e-02
-5.141809667996023459e-01
4.985112968925095034e-01
-5.914262905301968798e-02
3.519165504743227979e-01
4.795211335896458760e-01
-9.150128424480265255e-02
-2.702478800549136806e-01
-4.291987325929935704e-01
-6.322115436053420134e-02
4.572968567570299125e-01
5.773773364448452766e-02
5.871581135090635506e-01
-4.783416718315984806e-01
4.743166117010930161e-01
-1.452950520919175093e-01
-1.123875665237259319e-01
2.097451419148896323e-01
-1.473231609330289127e-01
2.175062388617357012e-01
-3.918898352387913397e-01
-9.275251602125025863e-02
-9.160842681322170500e-02
-3.501103242918163216e-01
8.349142629805510196e-02
2.132695077214759871e-01
-1.811152604071919123e-02
-1.634520266650572040e-01
-3.033777188564746458e-02
-1.476828374368469032e-01
-1.814413438354716412e-01
-5.226034181713043458e-02
3.470580817356828662e-01
-9.403573394698973298e-02
-1.274783065574736363e-01
6.942061816336449198e-02
8.960624255663983684e-01
1.622193693416083826e-01
-1.474788430716611198e-01
-1.364618224911532118e-01
-3.570022666411346024e-01
9.521142050642511512e-02
-2.616686530497711605e-01
-3.139160017625823862e-01
7.694354583977361939e-01
-4.645511465430187115e-01
2.519603604710482503e-01
-1.836648363635534631e-02
5.032966862271773811e-01
9.864112386461053594e-01
-7.388697902172240983e-01
5.412212286968947489e-02
-1.654940620940719698e-01
1.025956477669018652e+00
-5.493278754895262184e-01
-8.752536386245750588e-01
-5.067877187972243958e-01
5.131884524523749880e-01
4.120105579145100783e-01
-1.741065468884471223e-01
2.189423384118843394e-02
4.469003556706391822e-01
-1.411132448571358056e-01
-1.436745046269575499e-01
2.004690191266442212e-01
2.667526343317277449e-01
-3.693473939354868785e-01
4.589760357849512751e-01
2.943659782629890476e-01
1.081291365355418616e-01
4.790886353923138330e-01
-2.963563570828837701e-01
6.090524478654292251e-01
2.551568485512560325e-01
-2.527997108335565679e-01
7.142055167501597523e-01
5.583941287788191099e-01
-9.932380952001377272e-01
-3.981531285402483133e-01
-1.259074598180102977e-01
-1.983511633055043411e-01
5.047863854263621164e-01
6.632596780311789120e-01
-1.411431830240237884e-01
3.148481118410204060e-01
-8.833502478023504967e-01
2.346680647669086850e-01
-2.145774253820210420e-01
-3.709638450284611366e-01
2.785093577511543184e-01
3.514996394069141994e-01
6.342196625176148572e-01
-2.842969888628952280e-01
-6.028680153280122633e-01
-1.581676987014956348e-01
-7.377654503384830642e-01
1.501980282263694066e-01
4.939743491809782117e-01
1.635474488513275759e-01
7.702390074824729815e-01
-1.063543471410200447e-01
3.913330006023750252e-01
-9.713654019527755146e-02
3.994376617493654025e-01
3.743742036416786712e-01
3.000952084803074071e-01
-2.246904340362331498e-01
-6.679594328570666317e-02
-4.600477163262729485e-01
-2.297904799939120835e-01
-5.017248636954186880e-01
-6.150993067755139432e-02
6.530903222937750607e-02
-5.839842698696978696e-01
-2.985023746409923850e-01
-3.642989617988233730e-01
7.253837260894660521e-02
-4.665167182132415324e-01
-7.432964388743680262e-01
1.378387298203631595e-01
-9.646056600410944648e-02
1.440952884427033898e-01
1.094752358706369416e-01
2.841178666815495912e-01
-8.731432359191125536e-02
-4.188529126370565403e-01
-6.040924319340590376e-01
-4.431575574348822766e-01
2.460558435558321266e-01
5.627366535521304280e-01
2.585673107547070693e-01
-2.806923427281364236e-01
-1.517279635530899284e-01
-7.267547079101759067e-02
2.049309392008369646e-01
8.011496754875671589e-02
9.031637158219589512e-02
-1.095272851510492307e-01
3.494330029938785831e-01
-2.151145177237651918e-01
-3.536633611512939729e-02
-5.864810103478590442e-01
2.562141925984636609e-02
-2.930608552772779873e-01
3.707395797767129020e-01
-2.364237102151107439e-01
1.656487743442823513e-02
-5.667634197317069633e-01
2.144338973298557938e-01
1.253279130921383100e-01
-2.409695398744924610e-01
3.964243207631601429e-01
-5.514417630327005382e-01
-2.643043382788032997e-02
-3.870223345492361799e-01
-8.354560671185200238e-02
-1.210789149918957974e-01
-5.578281387730702479e-01
-1.704106384430980475e-02
1.437463011454502559e-01
-2.458553548264937327e-01
-6.341715802159818560e-01
1.248133122614099172e-01
-2.427006619114839281e-01
-5.731288186061437306e-01
1.192029080932043433e-01
-4.999404730244207951e-01
4.847971605884402596e-02
-7.157542272513591763e-01
-2.729143665877451289e-02
2.015894232827620813e-01
2.989928461918145985e-01
-3.835682350523618722e-01
-1.285376812372736599e-01
-3.851930126689440126e-01
2.981662436932964177e-01
6.645149907040008574e-02
-1.046030147466025101e-01
-1.599970901762518272e-01
9.183769014783918711e-04
3.706743519325530478e-01
-2.685740015115132828e-01
-6.397831005619024625e-01
-4.648798837149981100e-01
-1.016685693660546314e-01
-2.386433400528564230e-01
3.167882804349000381e-01
-3.532027502881441849e-01
-3.397021666007878360e-01
4.317913269287345090e-01
-4.815407742485796061e-01
-2.734128421505456763e-01
7.976477349824012686e-02
-8.594414525742700706e-01
2.757894662489274173e-01
3.471484599824023465e-01
-4.896739466158093329e-02
2.343242881919194165e-01
4.395764429132815176e-01
5.932646126839856426e-02
2.467362199643076751e-02
-6.632504976662559892e-01
3.194036733634086356e-01
1.641830150978592084e-01
-2.752496167060997784e-02
-1.109092750413581130e-01
-5.383848430330946400e-01
3.150935887477200603e-02
5.618252141133336375e-01
-1.735610625070976021e-01
-4.690552033874315629e-01
4.024489709818173111e-01
-1.745891063311170166e-01
-2.817544470961272918e-01
-1.403376343559876449e-01
-2.869571285032582741e-01
9.823483005303791649e-02
-4.598671177719710346e-01
-2.785951032028034513e-01
-4.988449290214279630e-01
6.440659514828139809e-01
4.716225340716771464e-01
-4.853629327273396160e-02
-3.082595738607836200e-01
-1.381705396637094019e-01
4.852886308688156847e-01
-2.094912976717592801e-01
5.850990583970505643e-01
8.097865997163108953e-02
4.064027261660145274e-01
-1.918741634628867432e-01
9.853616886679242293e-02
-5.874780990671466668e-02
2.407446421207151688e-01
7.458313350798040364e-01
-1.730548445317179884e-01
-1.542822610949710904e-01
3.619290363472013605e-02
2.552324863661727394e-01
-3.034842114966869175e-01
-3.165872011890301096e-01
5.207180044570792754e-01
-3.224122884127865740e-01
1.830475815202758927e-01
5.055285195428753653e-01
1.366009616957154227e-01
4.014751014367681087e-02
-1.743463295496355536e-01
6.900800182216712542e-02
3.257018962432379761e-01
5.145013097140881120e-02
-2.112301377380652323e-01
2.358172907905188576e-01
-2.652667196977066544e-01
5.767807291806581471e-01
1.381672816115527280e-01
6.192313093500325175e-03
1.181571785033671412e-01
-7.598075713903044981e-02
2.486498512854701803e-01
-4.980047397292157174e-01
2.958564334207855473e-01
-3.729665708527417634e-01
-9.167580752698642477e-02
-1.663977146170788068e-01
2.309127076486527930e-01
6.399721236892028653e-01
-1.754675336600547975e-01
-2.743799160207365806e-01
-2.469451497104621918e-01
-2.863734112895408371e-02
-3.064081753637198369e-01
3.389049029531323032e-01
-1.161782336842225039e-01
-2.230783030179480653e-01
-4.030077846503810624e-01
-2.202640913001534528e-01
2.526130950776735440e-01
2.080609451069215590e-02
3.775432682529953343e-01
4.122187092905562067e-01
-2.555695269754270083e-01
2.191082996491931223e-01
2.661595001724134102e-01
-2.503138672511156515e-01
-3.259535238848332850e-01
-3.203942296568024761e-01
1.830741492787802890e-02
-2.196097622098727442e-01
-3.110156161492909077e-01
2.292654339852924494e-01
1.671626847842020147e-01
6.169740648629135071e-01
1.569117066128055127e-01
-1.752953670574895484e-01
-3.331881761788668128e-01
-8.627007372829631482e-02
-2.030787759005777127e-01
-2.180704642851032105e-01
4.325975328021283706e-01
-2.280236753826137552e-01
1.738807295530591934e-01
-3.167812241083356462e-01
4.605357341463641729e-01
5.051613002800769969e-02
4.619408799255981246e-01
2.002843850958557492e-01
-1.025808941515323619e-01
-5.895288908134063005e-02
5.619973545991859831e-01
-1.763116175909794914e-01
4.558024281685061907e-01
2.033185817954596963e-01
-4.295843295109245674e-01
9.198408094474751495e-01
-5.314148712127262364e-01
4.503840813075230542e-01
-6.905482429514124831e-01
-9.792429511185790636e-01
-5.677104984099500262e-01
-6.478911925657668824e-01
5.928929610906447101e-01
5.487921423697902368e-01
1.745281802332210586e-01
-4.451921898196205263e-02
-1.726564560346958987e-01
1.877335085442416451e-02
-5.595508260664452393e-01
1.745225284740088978e-01
1.544121957111740662e-01
9.778876842854969387e-02
-4.481956018773837480e-02
4.047120683397256169e-01
2.377620194398792630e-01
-9.409463929403322213e-02
-3.747343774991201415e-01
2.896787673301101304e-02
-2.838976305716380821e-01
3.153782375745196598e-01
-8.463304818364607296e-02
2.076455356577942002e-01
3.617653054700604165e-01
1.628772500477718987e-01
1.796002645036486878e-01
-3.362808751691043208e-01
-1.344464503757542007e-01
-2.552554299835665397e-01
-1.949669845565834558e-01
5.254511963976711275e-01
2.299402749619364750e-01
-4.438863919434335448e-01
1.721948383619492373e-01
-3.977004454945115564e-01
-2.019178013921870130e-01
-5.339015429042236471e-01
-4.419822751941020478e-01
1.227255583807809400e-02
6.420931799513365235e-01
-1.153362924272984397e-01
2.099029661403900016e-01
1.882631845279749139e-01
-2.277565771062775232e-02
-6.561766994993241120e-01
-1.642424440216022630e-01
-6.719952025105968563e-02
5.665462690637461662e-01
-6.050949830834460030e-01
-5.379871529857243040e-01
5.238099145904128173e-01
5.069121034811289173e-01
-7.068236810354830979e-01
-1.430328901761925842e-01
4.584476507270988099e-01
-5.675017000057054339e-01
-3.465249602152737501e-02
7.307872815916514886e-02
-3.344121192284927324e-01
-4.817982286899348821e-01
-2.688853740346468513e-01
-5.428265493184717405e-01
2.100171045695663485e-01
-3.958082969556516728e-01
1.577448477981286887e-02
-7.808668722760619962e-02
1.727775631266691703e-01
3.396565905410636188e-01
-4.307311063070469737e-01
5.160470688370900547e-03
1.437750612745349876e-01
-1.072526846387180932e-01
3.664083176476355952e-01
-5.552596758226316931e-01
1.508594215355978929e-01
-3.418252979315741097e-02
-3.444374719545569286e-01
6.306564683313488351e-02
2.225423996521510572e-01
6.792766114854034698e-02
-2.856260808423060626e-01
5.591264650974253625e-01
-9.032410613169726543e-02
3.505673127159232294e-01
2.828945421651838932e-01
-5.749991140603426948e-02
-1.228797425072951782e-01
3.196404321080653643e-01
-1.475089571864424964e-01
-2.920824532268103679e-01
-3.467087673381681334e-01
-1.808626952597496285e-01
1.219746194411338719e-01
-3.621196838773502180e-01
2.855329641219724879e-01
1.654038099148057439e-01
5.896154136567574588e-02
2.369919396104461784e-01
-6.358089766782714092e-01
2.013242040311682135e-01
-1.051723611776592682e-01
1.435745775365158683e-01
1.629979176929489404e-01
3.147629432056146537e-01
-1.082056969687975462e-01
1.163343601214144978e-02
-3.650070516031750367e-01
-1.279999981112555363e-01
1.704241514868126348e-02
3.004291028670948993e-01
-4.929224193367445217e-01
-2.246755995219318000e-02
1.238664114254436205e-01
-1.694564226415071762e-01
-3.150799470596623575e-01
-5.138575178119888509e-01
-2.838520288644728051e-01
4.837280818585233677e-02
-8.922510532890760571e-01
3.574638323386765681e-01
3.636548689711258803e-02
9.496401984269188523e-03
9.194669506950314125e-03
4.561025331673500965e-02
-5.721418801649154062e-01
-3.636751720050347692e-02
3.362750258832208350e-01
-1.368912178252257861e-01
-1.323149166509570429e-01
-7.480079603370873298e-02
-2.026479981902395144e-01
3.693138521084797787e-01
5.785066730695088699e-01
1.228835143540620289e-01
1.417154297444457763e-02
2.128203758331481676e-02
-6.489112534190882853e-02
-3.106344207232082932e-01
3.397292400875996932e-01
-4.070335526463670917e-01
-2.415773867289906229e-01
3.327363680381390521e-01
3.509870923959475530e-01
3.389864158518904325e-01
-2.890008116561308404e-01
-4.330411605320668156e-01
4.016684281350788033e-01
-3.611818615275542155e-01
1.179859856084370662e-01
-5.097781578947149228e-01
1.945315276935977722e-01
3.815324635092384037e-02
-3.855291027854210739e-01
-1.683942386158885848e-02
2.179082075296986942e-01
-4.899161366990343880e-01
2.275946519089703524e-01
-4.616868833656515569e-01
-2.050453939681852744e-01
-1.965691686583641851e-01
4.805344724213323482e-01
-7.438335720658842409e-02
-8.135328087922553963e-02
1.148173105104309116e-01
2.898398471391959719e-01
-2.120293544300956012e-01
-3.217846039776647848e-01
2.882389099373974251e-01
-3.266910046461857231e-02
1.329738938366452072e-01
-6.586036545419494681e-01
-1.791367663994030412e-01
7.464580355014624469e-02
-9.504252634260633437e-02
-5.727744232670627378e-01
1.594483997980730705e-02
2.879003702835373768e-01
1.529105033990298124e-02
-8.016893257513521553e-02
-7.024584756898736293e-01
3.406795462793282270e-01
1.681685761745490559e-01
2.008726838802833703e-01
-3.441511506420689287e-02
-2.037788957701281434e-01
1.491091031269975442e-01
1.144791783016460007e-01
-3.055296586600212971e-01
4.366431726989669637e-01
-2.010601994825144956e-01
2.207031919141664023e-01
-5.394322818033266964e-01
8.867488315646238073e-02
3.666947387535358094e-01
3.276609253197992344e-01
-2.707109504657971288e-01
-2.134364748218452179e-01
2.265014769059217337e-01
-2.607857050635118967e-01
-7.750013735963344474e-02
-3.135425665486948898e-01
-5.155112537848571819e-02
1.510633578465132298e-01
-4.313160606780790385e-01
7.812510160794215730e-02
2.052840228850293380e-01
2.451352925113232661e-01
-2.565590884599864285e-01
-2.106489623411760548e-01
-2.034291383353118432e-01
3.301799380735216949e-01
-2.983424305234228524e-01
-6.022775227320030511e-02
-1.562058972835337345e-01
-6.344347327983791418e-01
-5.547252742508844703e-01
-2.426188751242694119e-01
1.039548183927449694e-02
1.656184702633131667e-01
6.622586881053597052e-01
3.799134308749544525e-02
2.554417165741067475e-01
3.725070382264940583e-01
-8.500197708563214660e-02
-1.317246016807969433e-01
-7.461761607283082243e-02
-2.985573435949133159e-01
2.335577935114948878e-01
-4.371539250194977216e-02
5.655021461432193641e-01
-1.393417856121798304e-01
7.011673221148477519e-02
-3.454082247611517387e-01
-3.812658763653759553e-01
-8.471835806362321142e-03
-1.278526859745506561e-01
1.277596955442453046e-02
3.758948468124133080e-01
-5.483158081426730002e-01
4.578936398828407084e-01
-2.164936498972041823e-01
2.832831093542227396e-01
3.734126970556526232e-02
1.642861261867368528e-01
2.104114801594804129e-01
4.354453154849557972e-01
1.013889491964356931e-01
-4.114970854814849026e-03
-3.162649787643190824e-01
2.316355331978826176e-02
3.704610567062276982e-01
4.344627665098212133e-02
3.003198592494455976e-01
6.253692961358828240e-02
-2.879039123327691851e-01
2.542185426183389829e-01
-4.979413821215829539e-01
2.579173891360669324e-01
-4.921506754460712174e-01
-4.280799338787534547e-02
-1.260507910215329097e-01
-2.213950636325921761e-01
2.238694889516795392e-02
-1.258839745663987153e-01
1.973620001068263352e-01
8.629268440075207880e-03
-2.188604857504307666e-01
-3.238134980733083368e-01
1.829726546688924260e-01
-1.342582586851438775e-01
-2.414882687879754686e-01
1.389549439163989368e-02
4.700840232143444625e-02
1.957960036308202534e-01
1.876826125964761727e-01
1.870566804556958729e-01
2.245564017361166564e-02
1.964036573579628492e-02
-5.735171093351185689e-01
-7.110375823395181927e-01
-2.549429949546371810e-01
-2.500100071992408801e-01
-1.675465962013421295e-02
-1.148946946122939294e-01
-7.459481809316118039e-02
5.869293415647086447e-03
-2.376107078005634254e-01
-1.321742840774064454e-01
4.694640576493976369e-01
1.602111356782148499e-01
-1.323247472296717187e-01
1.070063146497409884e-01
-1.411392062876303255e-01
-1.721965682308271017e-01
-1.377078154785084663e-01
6.401312285328830676e-02
2.680070000197431468e-01
6.954503391244979023e-03
-3.541475001624759256e-01
6.245011518713231569e-01
4.246378324735113341e-01
-6.403264238479163817e-01
7.212770385902568526e-02
4.599947289396663086e-01
-2.870099037457978786e-01
-6.858031082426100378e-01
7.058939240970285578e-01
-6.771299910494076035e-02
-5.898461392982338181e-01
8.516787321747927297e-01
-5.182994352243847080e-01
-4.080531598146595051e-01
-5.338522455143994705e-01
-3.431019722860523258e-01
3.613577033355299672e-01
-1.394988259306033374e-01
-3.499769102285749667e-01
-3.856330059477812155e-01
-6.205679358424037728e-01
1.411366894811233452e-02
4.952241812036435320e-01
-2.299501144382492257e-01
-1.992989429299125148e-01
6.332104291692473852e-02
-2.360383464727609792e-01
2.300665328551614874e-01
-5.401195977798396719e-02
2.637204445143021547e-01
-3.519995836212916340e-03
8.232395289813681724e-04
-3.730609040239275809e-02
-3.874169410537996461e-01
3.231535777372795404e-01
1.813756420657025026e-01
5.432802848374981286e-01
-2.448946418944268344e-01
-3.271635487872091158e-02
4.100328870614201870e-02
4.560480157385716771e-01
-1.531199399394221061e-01
-3.547544732776881093e-01
3.544529413964183084e-01
4.257123892007801946e-01
-2.681302624515520261e-01
1.865481349922729071e-01
1.651595964729649368e-01
-3.838281800496587404e-02
2.829172046861042067e-01
9.242997241424222299e-02
-1.082340967288078354e-01
-8.647561616851985600e-02
-1.654086962787639503e-01
1.594013807959373530e-01
-4.575119587444068103e-01
2.319432436567711864e-01
2.327017126921163970e-01
-4.816563250402076113e-01
5.230828614747641270e-01
5.264925975427557914e-01
-1.809881961004809192e-01
-1.173888726335174382e-01
-7.621512964207806384e-02
-3.941604313338399890e-01
1.743604478745245934e-01
1.996869237065941605e-02
2.337821962179499891e-01
-3.145364887849506630e-01
-2.080287033700728427e-01
8.590669973702429463e-01
6.423014321560828188e-01
-4.981711215707196327e-01
6.832654275335960925e-01
-7.911686195674273725e-02
7.738207770844932054e-02
2.918733293886713875e-01
5.339140018558816841e-02
-4.830045875420739265e-01
2.133821419301956679e-01
1.602937610619113162e-01
-4.689733963829461061e-01
1.758189874918368589e-02
4.144156077146790018e-01
-2.156800043295902802e-01
-3.273482703050066278e-01
-7.004623378496856179e-02
6.469412504530765995e-01
-5.657396922439251324e-02
1.047586869971063872e-01
7.351656043531705487e-02
3.230718822628754205e-01
-7.534995026377199201e-01
3.197852365357238547e-02
2.364667008965455341e-01
-9.589679731916711525e-04
9.715187240415755487e-02
-3.641674019759189584e-01
-4.808583242962630871e-03
-4.279838475055172675e-01
4.980277105271108118e-01
-2.253961983901879018e-01
4.650742034363803540e-02
-5.520145087538159689e-01
-2.059649971129137724e-01
4.631940188946206960e-01
-4.703782854607918562e-02
5.602201489630437292e-01
-3.343717896908936504e-01
-9.003374761850839458e-02
-7.833390847099321042e-02
3.971897862643092303e-01
5.961751067588945130e-01
-3.755593743728589118e-01
6.662484563272682569e-01
-3.788426296690517447e-01
6.240871142969087182e-02
2.580008285696838710e-01
-2.151940886866811342e-02
1.114867810914836888e-01
9.351273921152346291e-02
-2.609663188503273390e-01
7.306120882356247348e-01
1.316438224336227703e-01
2.019084792842653353e-01
3.667258490105980429e-02
4.074779188564461307e-01
3.566623177190409999e-01
5.572893032352838061e-01
1.491130965626849270e-01
-6.630135861369780559e-02
3.888792553795440976e-01
-5.003701977110256438e-01
-4.063809016866809509e-01
1.209246266625430000e-01
-1.765079414605429386e-01
-2.897282836545932438e-01
1.735693067775150866e-01
2.457110371979719377e-01
5.184704458993411730e-02
-3.087941103349937100e-01
5.310246471071845553e-01
4.813663543659330371e-03
-8.417862027303200934e-02
4.368037524623140377e-02
-2.076593740784155734e-02
1.071489799845022073e-01
-4.954400719056253205e-03
7.824611544825377241e-02
4.451701223482466552e-01
6.190793980184866596e-01
-2.536962804119903270e-01
2.678633584533374745e-01
-7.172450709910415112e-01
-1.728831369399910500e-01
3.697872019587094550e-01
2.916341450498598498e-01
6.671203402497314361e-01
2.659799514350268956e-01
-2.861594988836185238e-01
1.721212992770197736e-01
2.133842682257285905e-01
-2.178206647423148457e-01
-1.780271284307588242e-01
-2.971588696864280732e-01
4.159185492446676458e-01
-5.627574476711574153e-02
-1.588695588629769895e-01
6.357259321342503822e-02
2.466753699312989323e-01
-3.084833513445983666e-01
1.444591101516433940e-01
5.538275836569493960e-01
3.697359058107897445e-01
5.336667935884544800e-01
5.352008943596440194e-01
3.429579551870335363e-01
3.161209454256546647e-01
-6.224703081960645257e-01
-2.075701375935303239e-01
2.703871342605951855e-01
3.238300597860074292e-01
-3.246745152717978034e-01
-3.110180596899985717e-01
-1.635230234121208270e-01
3.119992201249006669e-01
-5.348548073431045324e-01
-3.916133832549374694e-02
8.908179832232225592e-02
-3.210906502622409842e-01
1.386753439100587570e-01
2.528058717196896565e-01
-1.465606435949041719e-01
-2.349547419346818544e-01
-1.084209297625024215e-01
4.978443524992608171e-02
1.835789364250606237e-02
3.865054736973271288e-01
3.871535437747149894e-02
1.200762529943835560e-01
-7.547379166014198670e-01
9.183271897149730689e-02
1.671285885148512951e-01
-3.299080971793014183e-01
-1.934774499234630796e-01
-2.252650225116334670e-01
-4.363601362830022978e-01
8.719068726509847655e-01
-4.436296833518594412e-02
-3.210126915759154431e-01
-1.922038877358116793e-01
-2.851045381787648547e-01
4.141531641254216356e-01
3.143360550798707242e-01
-2.403254360409059487e-01
2.868274823006847773e-01
4.791317409750890655e-02
-2.381762200306299371e-01
-1.204860555735762784e-01
-3.384292194194886139e-01
-1.384048538925786442e-01
3.921430110053020224e-01
2.483531078871009934e-01
-3.831374094631891797e-02
9.286366895797569521e-02
3.968479900997134990e-02
-1.125546065084250535e-01
-6.775755235207669980e-02
-1.509816985339226536e-01
-2.110551695232724401e-01
-1.860842767438907752e-01
-1.275559475057594094e-01
-3.318049707951430394e-01
-1.531497649223602930e-01
-6.004480116653611657e-03
-1.130278519328835191e-01
-4.879671346579026597e-02
-1.960262588890465674e-01
1.190665527600889562e-01
3.091920241880918852e-01
3.692772904363253450e-01
-3.275975545941438027e-01
-1.344795616377098546e-01
-1.556856636887124223e-01
7.219471606253321724e-03
-3.673026925357725792e-01
1.433583997834661783e-01
-2.125057047682160638e-01
4.971286486149383288e-01
2.257188211364403729e-01
-4.077982790573131400e-01
1.286323617094200789e-01
-3.155682211098371215e-01
3.391425148776264914e-02
3.300457431151438414e-01
-1.898934691382896944e-01
2.699938918425604517e-01
1.799415527531042849e-02
4.843884432641165083e-01
7.955091060660630931e-02
2.850460046560970295e-01
1.734180164830022020e-01
1.370979283457797460e-02
2.852182635389433618e-01
-1.177522301397964932e-01
-2.617252828775154527e-01
-3.494511546829565662e-01
-4.472960069509068076e-02
-2.130336271155785222e-01
8.331432648005274166e-02
-8.586635022085725710e-02
-4.149705000972102598e-01
-1.576215316638928110e-01
-1.953521109862624838e-01
-7.420891276723308103e-03
-4.067745880511456358e-01
-1.166811145155254859e-01
-2.168152055646291598e-01
5.942236129609824724e-01
-4.603103954951330290e-01
-4.662368808089534800e-01
2.376472890505550162e-01
-4.768521400556349765e-02
-4.547982602578309191e-02
2.860623481572150406e-01
6.507563968851888536e-02
1.102417503414260397e-01
-1.113500266741791894e-01
5.203069384966214628e-01
-7.277666814942394292e-03
1.581275982967226545e-01
3.739521962880009154e-01
5.281674045798919609e-02
-1.437949644342808586e-01
-6.846850614966017989e-01
-5.588998646654006613e-02
-5.251856971271733343e-01
3.580491006656236208e-01
1.034266033681070784e-01
-9.208586935797634376e-02
-1.773287886992421236e-01
7.783860090892503678e-03
-2.126918759237926282e-01
1.433412992181214325e-02
-3.742147430109022399e-01
5.581577838239348832e-01
-4.180896101567447842e-01
2.174954002128101360e-01
-4.870660125771217874e-01
-3.434848174789593145e-01
3.407694084445758165e-01
-8.219157756314089680e-02
-2.945687429366766752e-02
-3.770633995094539448e-01
5.171154030864152235e-02
1.299112823897473901e-01
2.124656904608626107e-01
6.313789657854960158e-01
1.169724628941825467e-01
1.223709625396740414e-01
6.993003078278520190e-02
-4.727933657142575630e-01
2.219897140097761568e-01
-2.509535872957037728e-01
2.786016313037411596e-01
-3.796974387006730178e-01
5.045459101984094419e-01
4.768263229023980698e-01
-1.056560233511860819e-01
-2.775475971997901428e-02
-6.131783706127170719e-01
-1.349215901627057734e-01
-1.068765947372600084e-01
6.201218100713101582e-03
-4.631317585654991520e-01
-1.262035473490002446e-01
-1.185829125977860138e-01
-3.707221580721181686e-01
1.956533774173371265e-01
-4.951257028414883243e-01
-1.809880858999447228e-01
1.455381329221021314e-01
5.298233940300473704e-02
-2.490041740780553070e-01
2.422429668489268217e-01
1.599759736240409513e-01
1.051758632813865196e-01
1.883525888386478608e-01
7.064290477180183991e-01
-2.888329217390710468e-01
-1.592274003467711863e-01
-2.846360388483662116e-02
-4.002893598741157910e-01
-8.665434820329595000e-01
-1.665677357033410189e-01
-4.685773440221210895e-02
-2.260609455815463797e-01
2.640679342346609615e-01
1.323830208487334625e-01
3.488289956815563975e-01
-4.324092394790056693e-01
-2.254121319252183966e-02
-1.538017327922578947e-01
-2.246900400026542455e-01
-1.409142498007396049e-01
2.827218633513265966e-01
1.174790408077128617e-01
-6.813974829260027732e-02
1.158890190451184049e-01
-2.736440033616890921e-01
2.003154000344502805e-01
1.547312543803897877e-01
-1.873679579331219980e-01
2.336561786276732944e-01
-2.333905848831196450e-01
-1.696227422633756199e-01
3.742842556864750536e-02
-2.967601893233391408e-01
4.876377531059489234e-02
-1.592723287292902579e-01
1.001371218908992805e-01
-1.713166646957527128e-02
2.143876503720934801e-01
1.824451351640024033e-01
-9.248004066325694883e-02
2.664118014353761832e-01
-1.596552536101965292e-01
-3.458598920817320677e-01
2.392062074505789740e-02
-2.461909292432894747e-01
-1.343647541694311942e-01
-1.429455739104620038e-01
9.898412615004248405e-02
2.262376424155209675e-01
-3.125021408429873859e-01
8.593774528516615607e-01
5.581710911550289422e-01
-2.259733156541486321e-01
1.983958435383176566e-01
-2.938715214346894755e-01
4.531077334895083353e-01
-4.714387410367185810e-02
3.658778273584249452e-01
1.514031857464510633e-01
3.451192200672358323e-01
-6.375174698846929056e-02
5.315438859238796193e-02
1.547584821049435566e-01
8.357609185785869199e-02
-1.480791239522369351e-01
3.946711839059061089e-01
-1.305195962410442001e-01
-4.363125964724224870e-01
-4.321695712014873569e-01
-2.070177287735579796e-01
5.796034212295182730e-02
-3.974740838060155657e-01
-3.038918932449054255e-02
9.669365179751193695e-02
1.512918558474007358e-01
1.166438649929001647e-01
-5.722232061610800502e-02
2.724496720792190518e-01
7.887942749495381600e-02
-7.268729393622078150e-02
-2.708507614931293661e-01
1.523923480089056093e-01
-4.183831418092475163e-01
-2.467754562489554437e-01
-1.460431400013456338e-01
-3.160240583301014428e-01
-3.200810597948895442e-01
5.936357843904439130e-02
-9.453353125160669779e-02
-3.407541605326174783e-01
7.215635524350400010e-02
3.600734329785615917e-01
8.217911439466996093e-02
8.283685761225982602e-02
-1.975573514216089899e-01
-3.676044373033887647e-02
-1.288121494812353440e-01
7.443540787087636612e-02
3.734924019226205649e-01
1.525930283548173616e-01
4.388358869859274036e-01
3.359637947078070730e-01
-1.219232056841344503e-01
-2.842120015792990451e-01
1.606833256428174816e-01
3.233719948678834832e-01
4.305877659477637676e-01
3.640014174694078397e-01
1.113442977731139288e-01
4.381202969778614231e-01
2.066657301184571527e-01
4.451327776875918518e-02
2.501989406227626001e-01
-2.864574997257107181e-01
-4.269793284091906449e-02
2.310822114450573200e-02
5.930348849540664768e-02
1.613180535932978998e-01
-6.478758580822047836e-03
2.731637007426386266e-01
1.555373336090892789e-01
-1.528370600505083443e-01
-5.850482101043701366e-01
-2.404504728819874537e-01
1.310119806078620663e-01
-1.216654671311566821e-01
8.577534992701292549e-02
3.875343610017764617e-01
-4.539446945194401950e-01
-1.059376003077019124e-01
-8.996663427073767205e-02
-5.746353790777873616e-02
4.056434827091087714e-01
3.441530251639617344e-01
1.922265024368359498e-01
6.384766212418377940e-01
-2.641890519987706298e-01
-1.057941965763055103e-01
8.625295488368779281e-03
1.120513314546233430e-01
-1.137614001811672326e-01
-2.629171903894864798e-02
-1.028909082499901984e-01
-2.602826042942462531e-02
2.240700620476922811e-01
5.240387840106793815e-01
-3.122985289446368884e-01
7.737743038494336589e-02
-1.864821448959846223e-02
-1.522993230338861026e-01
8.138672902368015993e-02
1.544515118208346638e-01
-4.303880813218011747e-01
2.156765499319043822e-01
-3.035496022879754507e-01
-9.028206011438266732e-02
-6.394832866627050971e-02
3.033806433690386939e-01
1.880020324233861451e-01
-2.013386325582412484e-01
-3.222790288409395631e-01
-1.185845420492396274e-01
5.163180586278278555e-02
-6.042533804367601624e-02
3.202715697034717035e-01
-7.422720346943048608e-02
3.446852595549876330e-01
-3.143394681937064505e-02
2.320785048093612080e-01
-5.208840973417053766e-01
2.105823576693627019e-01
-2.622316408630935847e-01
2.816838441305530294e-01
3.750439545828015975e-01
-1.914803286869657672e-01
2.810143041891332572e-01
-1.761436398971406025e-01
1.747295479931613993e-01
-2.452191686166447365e-02
-4.800392892333214812e-02
5.429160276202340402e-02
-2.761423331052023644e-02
2.097375892322031754e-01
7.815380842615303469e-02
-7.719410564124591367e-01
-2.743706928302372394e-01
1.647652787834774923e-01
1.693305352306489694e-02
9.094368866545936292e-02
-6.503537261770575562e-01
-6.052115980098802250e-01
3.276286895987645664e-01
-8.288980575384254090e-02
-3.643792231919179558e-01
1.197921905824646943e-01
-1.228868657216468652e-01
1.414879820645719433e-01
1.243470703499870711e-01
4.003062599009807876e-01
-3.029497904424218735e-01
6.767645779799482016e-03
9.575666252223766217e-02
-7.187708411039259171e-02
-2.400503410463843967e-01
3.441322163294919245e-01
-1.458658606287504822e-01
-2.777540318998492075e-01
-8.673197156691578313e-02
3.984275897649999787e-01
4.168335567179891343e-02
4.111269748331450313e-02
2.051095635108605986e-01
-2.301679504326153980e-02
3.608519886191695059e-01
-1.485267679533827656e-01
-1.908066864467916623e-01
-7.973439940621514233e-02
-2.071348364282062371e-01
2.900488583433785683e-01
-1.984448232282096103e-01
1.114890885949815641e-01
1.143753646306375077e-01
-2.263626280199243779e-01
2.916194916853154240e-01
-1.567205019540936772e-01
3.576540431920350316e-01
-3.158719715519427429e-01
1.358538992661714184e-01
3.527945795140916552e-01
3.255648588629393991e-01
-2.029333193113040390e-01
-3.057375765098493958e-01
-2.266243682846125207e-01
2.678293822582712980e-01
-4.427457782671320036e-02
-2.215385665782549918e-01
2.185667357833057656e-01
-4.824466806690933529e-01
-8.025764376448265690e-04
4.567619198937028502e-02
-3.808541134716395549e-01
-5.439310880857166353e-02
3.909308109962716382e-01
2.217064487271691864e-01
2.081066364949149261e-01
9.467781628427200669e-02
3.251622891522066433e-02
-2.769850589302911281e-01
-4.794641041665983483e-01
-4.904686582001866468e-01
5.150082626169834310e-02
-4.599610482473782264e-02
-1.042566009785868136e-01
-3.044343148914048780e-01
-2.892378955874213564e-01
6.864278745162616380e-02
-4.954223453788962894e-01
-1.074614667034032300e-01
-4.038458666264231889e-01
2.872489437857903560e-01
1.428347006578925549e-01
-9.881495940908850972e-01
-1.684831979430952142e-01
-7.680576976422072433e-02
-4.106849232786805581e-01
1.723524368611077315e-02
-3.068156277561576717e-01
7.072914214058848570e-01
-9.769043760078618965e-02
-4.415585757227681873e-01
-1.678289507509101997e-01
-3.201493292942711455e-02
3.735148350389912442e-01
3.760730246705268343e-01
-2.202380320905554800e-01
-2.404396672058631279e-01
1.419490078866523786e-01
-3.496381088354225120e-02
-1.100937433888471290e-01
5.301592807693231157e-02
4.018453407287623375e-02
5.194515856025942735e-02
1.493820847100428562e-02
8.817598427734067712e-02
-3.366650339568835748e-01
-1.517011441102009417e-01
-3.340254984407438066e-01
-2.635492849739703991e-01
5.259703509902154822e-02
-9.751993978354135673e-02
-3.527483984045107768e-01
2.434629597729393857e-01
-5.427607662069454664e-01
-1.217480380384207139e-01
-8.030388602376924145e-02
1.386794313817523161e-01
2.973612793919823138e-01
1.509221653845433109e-01
1.851769306974053730e-01
9.066213597450799300e-02
-4.799313971427737746e-01
-2.792988278541954639e-01
4.352636654369577696e-01
1.305554383963686005e-01
2.244706755080795937e-02
-2.137537702558988673e-01
4.567576418900450852e-01
-1.504228442556363177e-01
2.162088027667137813e-01
-1.454522653468744986e-01
1.970256736191651759e-01
-7.489803993497703982e-02
-2.055412454798942745e-01
2.662720759415289629e-01
-3.082262022914989408e-01
9.936697645180066901e-03
9.734237339521682741e-02
6.009065751472694727e-02
-6.169564895032144530e-02
3.970017646737419165e-02
3.866481635828529773e-01
-4.650558347988589802e-01
3.951337361588082298e-02
4.165662921984236711e-02
1.991496103117579852e-01
-6.964261295415571928e-02
3.630704757073586197e-01
3.031957089511005954e-01
2.615321010734155682e-01
1.299478600047642152e-01
-1.261435468510600788e-01
3.801841752444811567e-02
-8.927960411595603496e-03
-3.497172674836229039e-02
4.700253664955187372e-01
-1.302644260675126509e-01
6.065999805947438345e-02
-1.812992508292750327e-01
-4.151453301975456256e-01
-2.630264484695943872e-01
2.059825262484880348e-01
-2.335709021018753384e-01
8.470851929319685170e-02
-3.019068156650945856e-01
-3.032397923941367382e-02
2.235318369244643777e-01
2.025738148546170347e-01
-3.410546096060240173e-01
3.777043770840587955e-01
-2.305252619996457086e-01
-4.972324007513556632e-01
-3.619872535385622314e-02
2.542595595619928095e-01
-3.224661226324851415e-01
-3.704411438755024211e-01
4.833799043346186375e-01
-1.780256465793101928e-01
-1.469439198026903093e-01
1.089897540022542882e-01
2.990849377626261796e-01
1.314441952317434714e-01
2.516141837936906600e-01
-8.720278842692186227e-02
-1.331103814244955219e-01
5.030671122514543958e-01
2.846347924446900324e-01
1.011983284848658043e-01
-2.699236267270905265e-01
1.197535368104901687e-01
-2.043361063466563599e-01
-4.609065716943874097e-02
5.463601019007354731e-01
-4.339964855864912596e-02
-2.693277869477879727e-01
-3.837907767845256668e-01
2.459574534212655428e-01
3.332299776925341517e-01
5.218157290524472192e-01
1.041944758554903816e-01
-1.641345455796290598e-01
-4.119340993980966092e-02
3.354362637026986893e-01
1.443813024214486429e-01
-5.064818457561004461e-01
-4.861072129830791566e-02
-1.447073960300717943e-01
2.161492830471574145e-01
-5.117189292302534165e-01
7.825564447745501917e-02
9.308488156112319431e-03
-2.530701114845007593e-01
6.162987699507144895e-02
-1.818766173582711185e-02
-2.118790464606591373e-01
1.757342976242404556e-02
-1.064978408785733910e-01
3.408200362130132111e-01
7.015320542244930790e-02
-3.943765453655784931e-02
-1.645265283764935915e-01
-1.520895007679626820e-01
9.716757561771892371e-02
-1.878512304035299119e-01
2.963275920167893554e-02
-2.840693109349796269e-02
3.470131280032024423e-01
-2.553628713700589192e-01
6.051121158920143017e-01
1.089064143106982241e-01
-2.651058199179001096e-01
1.353134780760639477e-01
-4.910973028180481981e-02
-6.522350319909812899e-02
1.584279026740584850e-01
6.460154800645258322e-02
-3.368826626790247247e-01
-1.047368532174579869e-01
-1.383929607230043914e-02
-1.370444085316372962e-01
4.437077988270501927e-01
1.859418553588592371e-01
1.378531555492807648e-01
6.087032871332434536e-02
5.380186344192437048e-02
-2.977066668033169217e-01
9.649007483216514788e-03
-3.821976845794789468e-01
3.617701947089496661e-02
-2.737127442953183332e-01
-4.032330629599404914e-01
6.525775459992567973e-02
-2.906517256511795821e-01
1.701026981093569090e-01
-4.756055599216183483e-01
